%YAML:1.0
---
opencv_ml_svm:
   format: 3
   svmType: C_SVC
   kernel:
      type: RBF
      gamma: 5.3830000000000000e+00
   C: 2.6699999999999999e+00
   term_criteria: { epsilon:1.1920928955078125e-07, iterations:1000 }
   var_count: 64
   class_count: 10
   class_labels: !!opencv-matrix
      rows: 10
      cols: 1
      dt: i
      data: [ 0, 1, 2, 3, 4, 5, 6, 7, 8, 9 ]
   sv_total: 1961
   support_vectors:
      - [ 8.62504840e-02, 1.57733127e-01, 2.40745366e-01, 0., 0., 0., 0.,
          0., 0., 2.95223612e-02, 0., 0., 0., 0., 2.93100089e-01,
          1.62869215e-01, 0., 0., 0., 1.76962644e-01, 1.52258202e-01,
          1.83027014e-01, 2.21445709e-01, 8.38594809e-02, 2.18073845e-01,
          2.50565737e-01, 7.81075582e-02, 6.70580268e-02, 0., 0.,
          7.95891881e-02, 0., 3.06325078e-01, 7.65393898e-02, 0., 0., 0.,
          0., 0., 0., 0., 0., 0., 0., 0., 8.28100368e-02, 1.54423282e-01,
          2.67809957e-01, 1.17187567e-01, 1.05736807e-01, 0., 0., 0., 0.,
          4.82441112e-02, 3.02177548e-01, 3.45328420e-01, 1.09715581e-01,
          1.37872517e-01, 9.51974764e-02, 1.58218697e-01, 7.54663944e-02,
          0., 1.19654745e-01 ]
      - [ 1.52977005e-01, 1.63101271e-01, 1.67825967e-01, 2.13084355e-01,
          5.84312230e-02, 8.76914486e-02, 1.04085758e-01, 1.39746875e-01,
          1.91097319e-01, 0., 0., 0., 0., 0., 7.88034052e-02,
          1.06614061e-01, 2.71886945e-01, 1.76575556e-01, 4.40592319e-02,
          8.93809050e-02, 7.49022737e-02, 6.38253391e-02, 9.64274183e-02,
          1.86657071e-01, 2.72620767e-01, 8.08662921e-02, 0., 0., 0., 0.,
          0., 5.36780842e-02, 1.45897642e-01, 1.06710233e-01,
          8.24650154e-02, 0., 0., 0., 1.06662683e-01, 9.54123288e-02, 0.,
          0., 0., 1.91640735e-01, 2.27711067e-01, 1.40275940e-01,
          1.19760059e-01, 7.10411370e-02, 2.09343329e-01, 1.70921922e-01,
          1.10067189e-01, 4.19168249e-02, 0., 3.59631106e-02,
          1.13442792e-02, 2.28543252e-01, 2.62467414e-01, 2.21087649e-01,
          7.53484368e-02, 1.34015471e-01, 0., 1.38478756e-01,
          1.59237862e-01, 1.19006343e-01 ]
      - [ 8.88587758e-02, 1.56602934e-01, 3.01183999e-01, 0., 0., 0., 0.,
          0., 6.87101707e-02, 4.58090156e-02, 2.08373651e-01,
          9.44948047e-02, 1.18985027e-01, 1.18832849e-01, 9.26275179e-02,
          8.91389176e-02, 1.74898416e-01, 5.56994453e-02, 5.88265508e-02,
          1.32627562e-01, 1.33082554e-01, 9.42189321e-02, 1.35537058e-01,
          2.61952162e-01, 1.96239054e-01, 4.89900485e-02, 0., 0.,
          7.81922340e-02, 1.00656010e-01, 7.78276324e-02, 8.18442702e-02,
          7.94610102e-03, 3.17568690e-01, 1.83165953e-01, 0., 0., 0., 0.,
          0., 0., 0., 7.19064549e-02, 1.97049960e-01, 1.81927219e-01,
          1.26275539e-01, 1.04262382e-01, 7.70956129e-02, 6.33758754e-02,
          9.30311531e-02, 0., 1.84986576e-01, 1.60315782e-01,
          1.17949218e-01, 1.16245590e-01, 9.93567556e-02, 2.22238898e-01,
          7.87659734e-02, 2.27457866e-01, 2.70414442e-01, 0., 0., 0., 0. ]
      - [ 6.12866059e-02, 1.37707800e-01, 1.64991304e-01, 2.85835356e-01,
          1.27696961e-01, 0., 4.21314202e-02, 0., 0., 0., 1.26043811e-01,
          1.47231415e-01, 1.15347922e-01, 9.78098065e-02, 9.49874669e-02,
          1.13008380e-01, 1.13459945e-01, 0., 1.29423797e-01,
          9.84700471e-02, 1.01765729e-01, 2.06366703e-01, 1.91692859e-01,
          2.07139418e-01, 9.54733044e-02, 0., 0., 0., 8.86219963e-02,
          9.44223031e-02, 1.09474085e-01, 1.15780689e-01, 1.05909608e-01,
          1.37807235e-01, 1.38232335e-01, 1.54168218e-01, 1.26257807e-01,
          8.06499198e-02, 0., 0., 6.56063333e-02, 7.81706423e-02,
          9.75916311e-02, 1.62789315e-01, 2.08413929e-01, 2.48473480e-01,
          1.29679158e-01, 1.06701776e-01, 0., 4.36104126e-02,
          1.07925490e-01, 7.19599053e-02, 2.29958426e-02, 1.99289173e-01,
          1.78168178e-01, 0., 1.16574973e-01, 1.91972390e-01,
          1.35074168e-01, 2.27841973e-01, 1.74195796e-01, 1.12074755e-01,
          6.52457476e-02, 1.05022386e-01 ]
      - [ 2.84867465e-01, 1.40706807e-01, 1.21216580e-01, 1.48213625e-01,
          1.21828966e-01, 0., 0., 0., 0., 1.93055391e-01, 0., 0.,
          3.73532362e-02, 0., 7.56776053e-03, 1.41733155e-01, 0., 0., 0.,
          0., 2.02776879e-01, 1.45277381e-01, 1.47169918e-01,
          2.89012343e-01, 3.47790904e-02, 7.42921308e-02, 1.06254980e-01,
          8.18834081e-02, 0., 1.12138882e-01, 0., 1.82475105e-01,
          1.92558035e-01, 1.07024293e-02, 0., 1.33890688e-01,
          5.30311167e-02, 9.55956727e-02, 0., 1.19468577e-01,
          1.88488111e-01, 1.40268281e-01, 0., 0., 1.44326255e-01,
          1.66722924e-01, 2.18573540e-01, 2.05079079e-01, 1.79694727e-01,
          2.07557887e-01, 9.84477028e-02, 6.70459419e-02, 0., 0., 0.,
          2.28978433e-02, 2.79794931e-01, 2.36302704e-01, 1.58936381e-01,
          1.56854197e-01, 4.06876020e-02, 0., 0., 0. ]
      - [ 1.30032212e-01, 6.24520332e-02, 1.03095345e-01, 3.38366657e-01,
          0., 0., 0., 0., 0., 9.96257085e-03, 3.80055569e-02,
          3.11060369e-01, 1.24022610e-01, 1.17252238e-01, 6.56782985e-02,
          0., 1.60662025e-01, 1.31890714e-01, 0., 1.45851344e-01,
          2.09202737e-01, 1.77358776e-01, 1.56623751e-01, 1.41511843e-01,
          2.02998891e-01, 8.91079381e-03, 0., 0., 2.25916520e-01, 0.,
          1.04936972e-01, 7.27598816e-02, 2.04204842e-01, 2.78080732e-01,
          5.09072095e-02, 0., 0., 0., 0., 0., 1.43409416e-01,
          1.33532211e-01, 0., 8.14643726e-02, 0., 0., 0., 1.28500998e-01,
          8.64620209e-02, 2.56177813e-01, 0., 0., 0., 0., 0., 0.,
          1.67327359e-01, 3.81007969e-01, 0., 0., 0., 0., 0., 0. ]
      - [ 3.30978632e-01, 2.00987712e-01, 1.53385162e-01, 1.24209367e-01,
          1.55923098e-01, 9.89936441e-02, 0., 0., 0., 0., 0., 0., 0., 0.,
          0., 1.54657766e-01, 0., 0., 0., 0., 1.80170998e-01,
          1.53240398e-01, 1.92355469e-01, 2.67664105e-01, 2.27327511e-01,
          0., 0., 0., 0., 0., 0., 0., 0., 0., 9.63827148e-02, 0.,
          8.11292380e-02, 0., 4.91632298e-02, 0., 0., 0., 0., 0.,
          1.48378357e-01, 2.70513624e-01, 2.13344514e-01, 3.10658067e-01,
          0., 0., 0., 0., 1.12309225e-01, 1.83524281e-01, 1.30570561e-01,
          2.42014825e-02, 2.79987931e-01, 2.15996921e-01, 2.22582147e-01,
          2.06828684e-01, 0., 0., 0., 0. ]
      - [ 2.89164543e-01, 1.42360151e-01, 1.31494522e-01, 9.37708616e-02,
          0., 0., 5.06807677e-02, 0., 7.05823675e-02, 5.28481342e-02, 0.,
          0., 0., 0., 2.85980981e-02, 2.16047987e-01, 2.91517377e-02,
          1.36368647e-01, 6.59474060e-02, 0., 1.46638989e-01,
          1.70597643e-01, 1.45371854e-01, 2.20601633e-01, 2.58980513e-01,
          1.18689455e-01, 0., 6.07241429e-02, 0., 0., 0., 0.,
          2.25635737e-01, 1.94128036e-01, 0., 0., 9.79062021e-02, 0.,
          9.20343548e-02, 1.10757932e-01, 1.34190708e-01, 1.06286891e-01,
          0., 8.95787701e-02, 1.40857950e-01, 1.82260782e-01,
          1.65307939e-01, 1.46376401e-01, 1.55931532e-01, 1.42210573e-01,
          9.83195379e-02, 1.02958597e-01, 0., 1.75401285e-01,
          1.49152428e-01, 1.46567553e-01, 1.90399051e-01, 1.83302134e-01,
          2.01954141e-01, 2.50100285e-01, 0., 0., 1.12257145e-01, 0. ]
      - [ 1.94481581e-01, 2.24876285e-01, 1.92240402e-01, 0., 0., 0., 0.,
          3.32679488e-02, 1.94042668e-01, 1.72919065e-01, 0., 0., 0., 0.,
          0., 0., 1.45580232e-01, 1.91505969e-01, 0., 1.53381899e-01,
          1.35800853e-01, 1.38704687e-01, 1.49610281e-01, 1.88810170e-01,
          1.73224345e-01, 9.60325822e-02, 8.88820440e-02, 8.80101398e-02,
          1.10453084e-01, 1.24877892e-01, 0., 0., 1.75031632e-01,
          2.22887490e-02, 8.72745290e-02, 1.19528785e-01, 1.38550743e-01,
          0., 1.05455808e-01, 0., 1.32647291e-01, 0., 0., 1.60889715e-01,
          1.82786390e-01, 1.20899610e-01, 1.75836340e-01, 1.77055106e-01,
          1.44463912e-01, 1.22677363e-01, 1.82686090e-01, 0., 0., 0.,
          4.65566851e-02, 0., 3.88168246e-01, 1.31973192e-01,
          1.20808400e-01, 1.35752186e-02, 6.87156245e-02, 1.56286106e-01,
          1.15151376e-01, 1.11112088e-01 ]
      - [ 1.03582449e-01, 1.53735012e-01, 1.05250597e-01, 1.11802310e-01,
          1.89342886e-01, 1.38544306e-01, 1.66183904e-01, 2.08423361e-02,
          0., 0., 0., 0., 1.65340081e-01, 1.80468738e-01, 1.54537991e-01,
          1.29764557e-01, 0., 2.36056764e-02, 1.69110537e-01,
          2.43894979e-01, 1.19203724e-01, 1.40297309e-01, 9.67973545e-02,
          8.43441635e-02, 1.57661885e-01, 2.21877664e-01, 4.21481580e-02,
          3.86758484e-02, 0., 5.93873411e-02, 0., 7.09391683e-02,
          2.69881457e-01, 1.14975154e-01, 1.56632900e-01, 5.64973280e-02,
          1.32297009e-01, 3.32129933e-02, 0., 0., 4.02327627e-02,
          5.51060662e-02, 9.11563784e-02, 9.39394981e-02, 1.76857173e-01,
          2.03853592e-01, 1.51926771e-01, 1.55495197e-01, 0.,
          8.12976509e-02, 0., 0., 1.33917809e-01, 1.27963543e-01,
          9.46847498e-02, 9.34556574e-02, 2.46065944e-01, 2.30714381e-01,
          1.89644918e-01, 2.25317597e-01, 0., 0., 0., 0. ]
      - [ 1.41155332e-01, 1.47506699e-01, 1.24368675e-01, 1.29756212e-01,
          2.02822119e-01, 8.18633288e-02, 1.02730475e-01, 1.21615924e-01,
          7.25874901e-02, 6.53397338e-03, 0., 0., 1.95274562e-01,
          1.23473376e-01, 9.90718380e-02, 0., 0., 0., 0., 0., 0.,
          2.63872951e-01, 2.10622624e-01, 1.67305768e-01, 1.01885498e-01,
          0., 0., 0., 1.15685210e-01, 1.47251427e-01, 2.32986152e-01,
          1.16648361e-01, 0., 0., 0., 0., 1.33243039e-01, 1.33296132e-01,
          1.70840099e-01, 1.24360390e-01, 1.29186660e-01, 0., 0., 0.,
          1.33924559e-01, 2.60274619e-01, 1.53732702e-01, 2.18075946e-01,
          2.15371475e-01, 9.84311700e-02, 8.11987743e-02, 1.62943348e-01,
          1.44956008e-01, 0., 0., 7.98136517e-02, 2.04528898e-01,
          2.04553753e-01, 1.68379694e-01, 2.05452338e-01, 6.66229352e-02,
          0., 0., 0. ]
      - [ 7.71479979e-02, 2.67170876e-01, 1.91865012e-01, 1.46186903e-01,
          0., 0., 0., 0., 0., 0., 9.75179598e-02, 1.37663811e-01,
          9.50432792e-02, 4.31336164e-02, 1.33478895e-01, 1.04664758e-01,
          0., 1.26522705e-01, 0., 7.77188465e-02, 1.24225266e-01,
          2.59878427e-01, 2.06684649e-01, 1.89496279e-01, 1.47497982e-01,
          0., 6.37510419e-02, 4.28224765e-02, 0., 7.88200647e-02, 0.,
          8.94687548e-02, 1.47844851e-01, 1.27764717e-01, 1.06888667e-01,
          6.41319454e-02, 2.05675453e-01, 0., 0., 0., 3.85989808e-02, 0.,
          0., 2.07196310e-01, 1.58647731e-01, 1.79193661e-01,
          1.35208994e-01, 1.70195714e-01, 1.05006464e-01, 2.03108817e-01,
          1.35987908e-01, 0., 0., 0., 0., 1.42972767e-01, 2.44121149e-01,
          2.52425194e-01, 2.30877385e-01, 1.33326262e-01, 1.10578604e-01,
          1.23840056e-01, 4.34371792e-02, 1.03996880e-01 ]
      - [ 2.07326919e-01, 3.14149469e-01, 5.88914044e-02, 0., 0.,
          3.18421088e-02, 0., 0., 0., 0., 0., 0., 0., 0., 2.72673555e-02,
          1.95267722e-01, 0., 1.43909156e-01, 1.16821960e-01,
          1.37940720e-01, 1.07485510e-01, 1.21448219e-01, 2.22706914e-01,
          1.64117768e-01, 2.82199681e-01, 2.35588849e-01, 0., 0., 0., 0.,
          0., 0., 2.89146960e-01, 0., 0., 0., 0., 0., 6.74303621e-02, 0.,
          7.98539072e-02, 0., 6.11985549e-02, 0., 4.88983355e-02,
          1.84622988e-01, 2.05955774e-01, 2.05566794e-01, 0.,
          9.74478498e-02, 0., 0., 5.78520671e-02, 9.59903151e-02,
          2.64295250e-01, 1.62702397e-01, 1.89155877e-01, 2.02343315e-01,
          2.06321076e-01, 1.96712270e-01, 1.17135048e-01, 6.33416176e-02,
          0., 1.00415230e-01 ]
      - [ 1.42994389e-01, 1.45263195e-01, 1.93542182e-01, 1.41371220e-01,
          7.37600625e-02, 8.73264745e-02, 0., 7.10782111e-02, 0.,
          7.60781989e-02, 9.09750536e-02, 1.26368672e-01, 1.28509492e-01,
          1.22968405e-01, 1.80414632e-01, 1.49621502e-01, 9.83169526e-02,
          9.07534212e-02, 1.00049041e-01, 0., 0., 2.65070677e-01,
          1.49369985e-01, 1.95590511e-01, 2.02184871e-01, 6.87136725e-02,
          0., 1.45836979e-01, 1.13886781e-01, 6.35179430e-02,
          8.72671530e-02, 8.88201892e-02, 1.07458055e-01, 1.23811506e-01,
          1.45983160e-01, 2.31007174e-01, 0., 0., 0., 0., 0., 0., 0.,
          1.44517288e-01, 1.78061426e-01, 1.66000932e-01, 1.05955623e-01,
          1.33657157e-01, 1.72538370e-01, 9.69191417e-02, 1.23607300e-01,
          1.27055407e-01, 7.05204085e-02, 1.03106782e-01, 1.20814882e-01,
          1.54152170e-01, 2.50371963e-01, 5.77682555e-02, 2.50101388e-01,
          1.67059138e-01, 1.05002746e-01, 3.31143700e-02, 0.,
          6.49614036e-02 ]
      - [ 6.04165420e-02, 1.06758684e-01, 2.15179905e-01, 2.01654807e-01,
          9.82581005e-02, 3.99700403e-02, 0., 0., 0., 9.21394676e-02,
          1.27938047e-01, 1.54988810e-01, 1.85275212e-01, 9.24256667e-02,
          1.22691281e-01, 1.27369151e-01, 0., 1.56414539e-01,
          8.86253938e-02, 1.16080388e-01, 2.04844922e-01, 2.01221511e-01,
          1.11762218e-01, 2.49968525e-02, 1.61267459e-01, 1.53673947e-01,
          1.28804237e-01, 1.31903440e-01, 1.60865039e-01, 9.30157825e-02,
          0., 5.88106923e-02, 7.93498755e-02, 9.97576788e-02,
          7.89087415e-02, 1.37188315e-01, 1.67010069e-01, 1.55779853e-01,
          9.80903506e-02, 0., 0., 0., 0., 0., 2.53180236e-01,
          1.64473757e-01, 1.03580453e-01, 7.72265196e-02, 1.50684550e-01,
          8.34893808e-02, 1.13969199e-01, 1.46043986e-01, 9.78343636e-02,
          9.34140459e-02, 1.71946734e-01, 1.28242612e-01, 1.66827142e-01,
          1.30167097e-01, 1.18901186e-01, 2.42573410e-01, 0.,
          1.40677035e-01, 1.25528187e-01, 9.06621665e-02 ]
      - [ 1.40900418e-01, 1.80959433e-01, 1.26873806e-01, 1.58489197e-01,
          1.41310319e-01, 6.46097735e-02, 0., 0., 0., 0., 1.47469550e-01,
          1.29107639e-01, 1.23615541e-01, 6.36809319e-02, 1.17755771e-01,
          7.80011714e-02, 1.53546199e-01, 1.31137311e-01, 0., 0., 0.,
          1.91926017e-01, 1.71924621e-01, 2.38894194e-01, 1.72232196e-01,
          4.60756645e-02, 0., 0., 0., 7.75198340e-02, 9.60596651e-02,
          1.28175452e-01, 1.35167301e-01, 1.47989079e-01, 1.85507521e-01,
          1.49889499e-01, 1.30281121e-01, 0., 1.95150003e-02, 0., 0.,
          1.31573945e-01, 1.95563808e-01, 1.47195071e-01, 0.,
          1.50226295e-01, 2.04098240e-01, 1.47841230e-01, 0.,
          8.96290541e-02, 5.36992662e-02, 0., 2.65508264e-01,
          1.31749764e-01, 9.69654694e-02, 9.40017104e-02, 1.64698780e-01,
          1.30012378e-01, 1.66250959e-01, 1.94277108e-01, 2.68243253e-01,
          2.37712245e-02, 0., 0. ]
      - [ 2.05729395e-01, 1.78357586e-01, 1.64037213e-01, 1.62876770e-01,
          0., 0., 0., 0., 0., 0., 0., 0., 0., 1.94076803e-02,
          4.14363742e-02, 1.58622980e-01, 0., 0., 0., 1.30835980e-01,
          2.30947241e-01, 2.28886276e-01, 1.86541215e-01, 9.84036997e-02,
          1.38236225e-01, 1.21714428e-01, 1.30011171e-01, 1.28451630e-01,
          0., 0., 0., 0., 1.68725476e-01, 1.93663031e-01, 0., 0., 0.,
          1.15446150e-01, 0., 0., 1.55333757e-01, 5.82255013e-02,
          1.45613372e-01, 6.80002943e-02, 1.45128191e-01, 1.86140969e-01,
          1.85288459e-01, 1.67497694e-01, 1.54016793e-01, 4.66361903e-02,
          1.62323177e-01, 1.34314641e-01, 0., 0., 1.55170664e-01,
          2.41420701e-01, 1.38384372e-01, 1.73044607e-01, 1.85626492e-01,
          2.49793544e-01, 1.94432527e-01, 1.31118596e-01, 0.,
          7.86350369e-02 ]
      - [ 1.71058804e-01, 2.23407671e-01, 1.44663453e-01, 1.46837592e-01,
          2.33954880e-02, 6.77182972e-02, 0., 9.84853134e-02,
          1.80773735e-01, 1.00241579e-01, 1.03141829e-01, 1.00271545e-01,
          0., 0., 0., 1.20918810e-01, 0., 0., 0., 0., 2.52244443e-01,
          1.79567769e-01, 1.12480633e-01, 0., 1.06408946e-01,
          6.07873127e-02, 8.01790580e-02, 8.20861384e-02, 2.29150146e-01,
          1.40967369e-01, 1.39291054e-02, 0., 3.27108875e-02,
          1.21759228e-01, 1.31073460e-01, 2.27947116e-01, 1.15914866e-01,
          8.66941288e-02, 0., 0., 0., 0., 8.12285766e-02, 2.54708737e-01,
          1.83582887e-01, 1.41010880e-01, 1.65485099e-01, 1.23791732e-01,
          9.17449892e-02, 8.78822878e-02, 1.43523917e-01, 1.25964925e-01,
          2.13866219e-01, 1.40034199e-01, 9.73743647e-02, 1.32591411e-01,
          1.14223257e-01, 1.21830657e-01, 2.47339949e-01, 2.04996452e-01,
          1.01443470e-01, 9.72553417e-02, 8.10260326e-02, 0. ]
      - [ 2.00359344e-01, 2.12312847e-01, 2.24545687e-01, 0., 0., 0., 0.,
          0., 1.36501566e-01, 2.03423649e-01, 1.08178303e-01, 0., 0., 0.,
          0., 0., 2.30611399e-01, 3.15092765e-02, 0., 1.76903158e-01,
          1.36389777e-01, 1.22863971e-01, 1.94757313e-01, 1.56892240e-01,
          1.64193884e-01, 1.11689776e-01, 1.16490908e-01, 1.06183909e-01,
          1.35264471e-01, 0., 9.36489701e-02, 0., 1.22949034e-01,
          3.90884876e-02, 4.35326509e-02, 1.14008933e-01, 5.69804050e-02,
          1.26936480e-01, 8.29177871e-02, 1.39553294e-01, 0., 0., 0.,
          1.07941546e-01, 1.36594221e-01, 1.94895983e-01, 1.53278977e-01,
          2.20399365e-01, 2.04275310e-01, 1.18303023e-01, 1.83357596e-01,
          3.18043381e-02, 0., 0., 0., 0., 3.94569814e-01, 9.16318595e-02,
          8.58894438e-02, 8.84281099e-02, 5.67013286e-02, 1.41423568e-01,
          9.55109298e-02, 0. ]
      - [ 2.83309579e-01, 1.34922713e-01, 1.15481108e-01, 7.60433525e-02,
          2.39040017e-01, 0., 5.83160343e-03, 5.16812354e-02,
          1.44621566e-01, 1.59388363e-01, 1.07819080e-01, 1.27396554e-01,
          0., 2.59359144e-02, 4.12356621e-03, 0., 2.01642454e-01,
          1.48677304e-02, 1.71625704e-01, 1.83284208e-01, 1.22743867e-01,
          5.20388186e-02, 1.37361944e-01, 1.20147996e-01, 2.54187852e-01,
          1.51774123e-01, 5.18370979e-02, 0., 0., 1.04998156e-01,
          1.05526671e-01, 0., 3.15920323e-01, 7.02681988e-02, 0., 0., 0.,
          0., 0., 0., 1.47257134e-01, 1.01879440e-01, 1.23176351e-01,
          9.11854059e-02, 9.38238949e-02, 1.57539770e-01, 1.65213659e-01,
          1.45365477e-01, 2.23779842e-01, 5.95371313e-02, 0., 0., 0., 0.,
          3.45090292e-02, 0., 3.85380864e-01, 1.60156533e-01, 0.,
          9.42190960e-02, 0., 0., 0., 0. ]
      - [ 3.29060733e-01, 1.35723904e-01, 1.62621811e-01, 0.,
          7.19962493e-02, 4.04705033e-02, 0., 8.20204318e-02,
          2.01279640e-01, 0., 0., 0., 3.00240908e-02, 0., 0.,
          4.37891670e-02, 0., 0., 2.01649472e-01, 1.78845882e-01,
          1.65370464e-01, 1.40196547e-01, 1.67992651e-01, 1.75616756e-01,
          2.15208009e-01, 6.17594086e-02, 0., 9.58524570e-02, 0.,
          9.83635634e-02, 5.11971340e-02, 0., 2.22436279e-01, 0., 0., 0.,
          7.28834122e-02, 1.20037004e-01, 5.05048893e-02, 1.02622777e-01,
          9.69069749e-02, 1.24346547e-01, 0., 0., 1.46243513e-01,
          1.70410588e-01, 2.04384342e-01, 2.02860251e-01, 9.87815708e-02,
          1.37409538e-01, 1.59427151e-01, 0., 1.25889942e-01, 0., 0., 0.,
          1.40329704e-01, 3.08206111e-01, 2.76719570e-01, 1.54296905e-01,
          0., 0., 0., 1.19117796e-01 ]
      - [ 1.54276371e-01, 2.45642424e-01, 1.84700653e-01, 0., 0., 0., 0.,
          0., 1.65111139e-01, 1.54885873e-01, 1.01177208e-01, 0., 0.,
          2.46194489e-02, 2.59541590e-02, 9.58429500e-02, 0.,
          5.61342482e-03, 1.86559707e-02, 2.68965006e-01, 1.30015463e-01,
          1.39909819e-01, 1.05314702e-01, 5.16093560e-02, 1.09098442e-01,
          1.25746831e-01, 1.80187449e-01, 1.40381694e-01, 1.44599274e-01,
          0., 0., 0., 8.59631598e-02, 8.88313875e-02, 9.21728238e-02, 0.,
          1.13791257e-01, 9.96739343e-02, 9.85987559e-02, 1.64804205e-01,
          1.19106464e-01, 3.35662700e-02, 0., 9.05997828e-02,
          1.42135441e-01, 1.69995129e-01, 1.53918102e-01, 2.60867089e-01,
          0., 1.29087120e-01, 1.35784790e-01, 1.88799188e-01,
          1.10630691e-01, 1.01874754e-01, 1.61611199e-01, 1.83302760e-01,
          1.56885087e-01, 1.16080306e-01, 2.08755061e-01, 2.01296851e-01,
          1.54758781e-01, 9.06395093e-02, 1.19467758e-01, 1.28153861e-01 ]
      - [ 1.31305143e-01, 1.16546370e-01, 9.79099274e-02, 2.39239752e-01,
          1.50321990e-01, 0., 0., 0., 0., 5.21186925e-02, 1.86347701e-02,
          2.09432721e-01, 1.99760616e-01, 8.27384815e-02, 1.14485934e-01,
          6.58851340e-02, 2.66897053e-01, 0., 3.16918232e-02, 0.,
          1.13875426e-01, 2.08650917e-01, 1.65914595e-01, 2.14692771e-01,
          2.19851702e-01, 4.82639484e-02, 0., 0., 0., 1.04560159e-01,
          1.04485512e-01, 1.00061521e-01, 1.24182932e-01, 3.57184112e-01,
          0., 0., 0., 0., 0., 0., 0., 1.14494637e-01, 1.33148551e-01,
          1.49303392e-01, 1.01532079e-01, 1.38403535e-01, 1.49768637e-02,
          1.18543744e-01, 2.26632297e-01, 4.26452756e-02, 0., 0., 0., 0.,
          0., 0., 2.41709098e-01, 3.63687754e-01, 0., 0., 0., 0., 0., 0. ]
      - [ 2.44766518e-01, 1.56832919e-01, 1.88179523e-01, 1.59795165e-01,
          1.02745607e-01, 0., 1.15908459e-01, 0., 1.35833472e-01,
          1.05444379e-01, 1.03068411e-01, 0., 0., 0., 0., 1.00865662e-01,
          0., 0., 2.66907755e-02, 2.30037481e-01, 2.08585098e-01,
          1.91756621e-01, 1.99970543e-01, 5.13299890e-02, 9.25037935e-02,
          1.15320608e-01, 0., 1.08886845e-01, 2.37826809e-01, 0., 0., 0.,
          4.09758240e-02, 2.70976815e-02, 1.53353915e-01, 2.02887937e-01,
          0., 0., 0., 0., 0., 0., 1.61881417e-01, 2.33889163e-01,
          1.82017356e-01, 1.37481719e-01, 1.23623244e-01, 1.22497030e-01,
          1.26596496e-01, 1.55986577e-01, 1.63481712e-01, 4.37335148e-02,
          0., 0., 3.25274765e-02, 1.65475920e-01, 1.47361562e-01,
          2.08394378e-01, 2.32811555e-01, 1.58883393e-01, 1.02506563e-01,
          1.14371382e-01, 5.06609380e-02, 1.21979579e-01 ]
      - [ 1.37681112e-01, 2.38311127e-01, 1.43966228e-01, 1.73524499e-01,
          1.74338192e-01, 2.14190260e-02, 0., 7.53581449e-02,
          2.08721496e-02, 2.05694720e-01, 0., 2.97604352e-02,
          3.72698829e-02, 1.35938833e-02, 0., 2.30050124e-02,
          1.46131694e-01, 6.43210262e-02, 0., 1.00760423e-01,
          2.39733413e-01, 1.34152815e-01, 1.45699963e-01, 1.95100129e-01,
          7.15908827e-03, 9.35496464e-02, 1.03113689e-01, 1.12117700e-01,
          1.01822004e-01, 4.74050157e-02, 1.19951606e-01, 0.,
          1.47542760e-01, 0., 0., 1.24804735e-01, 8.35355297e-02,
          1.18158117e-01, 9.47526693e-02, 8.80195796e-02, 0.,
          1.61631569e-01, 0., 0., 2.18064234e-01, 1.39519691e-01,
          2.58714080e-01, 1.51230440e-01, 0., 1.32554293e-01,
          2.13818476e-01, 1.81843296e-01, 0., 0., 1.22239748e-02,
          1.53547719e-01, 6.10824674e-02, 1.56321809e-01, 3.23107272e-01,
          2.26117224e-01, 0., 0., 0., 0. ]
      - [ 1.55980587e-01, 2.27986991e-01, 2.21801385e-01, 1.43164724e-01,
          1.09250508e-02, 0., 0., 0., 1.09839052e-01, 1.49820700e-01,
          1.97658077e-01, 8.07993189e-02, 2.33514849e-02, 0., 0.,
          6.12768941e-02, 1.47043601e-01, 3.68354507e-02, 8.36898610e-02,
          6.39031976e-02, 2.08862230e-01, 1.70889363e-01, 1.24213412e-01,
          2.32303679e-01, 3.71811464e-02, 0., 8.06213692e-02,
          1.66672841e-01, 1.52393952e-01, 5.92086203e-02, 0.,
          1.38969257e-01, 0., 0., 0., 0., 1.47783995e-01, 1.03106715e-01,
          2.03320265e-01, 1.19589075e-01, 0., 0., 0., 0., 1.90594018e-01,
          1.48090333e-01, 2.47219816e-01, 1.92143768e-01, 1.58822656e-01,
          1.50442362e-01, 1.34526506e-01, 8.62680823e-02, 1.77824631e-01,
          2.45922506e-02, 0., 4.48477678e-02, 1.90394789e-01,
          1.79885432e-01, 1.81420803e-01, 2.37568751e-01, 3.84650715e-02,
          0., 0., 0. ]
      - [ 6.69615939e-02, 3.43718231e-01, 1.23251557e-01, 1.27496675e-01,
          0., 0., 0., 0., 0., 2.11506441e-01, 1.12895876e-01, 0., 0.,
          2.06165947e-02, 1.85905863e-02, 0., 0., 0., 0., 0.,
          1.27232611e-01, 1.22011833e-01, 3.50227982e-01, 0., 0., 0.,
          2.35211775e-02, 1.28194824e-01, 2.05049403e-02, 1.11828625e-01,
          1.79468110e-01, 8.28398764e-02, 2.02226937e-01, 2.80073006e-02,
          0., 0., 1.71635598e-01, 1.45936564e-01, 8.68191496e-02,
          7.56523982e-02, 1.42964080e-01, 1.65779054e-01, 0., 0.,
          2.13515133e-01, 1.84881255e-01, 1.64366454e-01, 1.43763289e-01,
          6.56826422e-02, 1.04446262e-01, 8.91269818e-02, 1.58889458e-01,
          1.25414982e-01, 0., 5.07235378e-02, 2.05701128e-01,
          1.38935611e-01, 1.63876176e-01, 1.42541558e-01, 2.43316785e-01,
          0., 0., 2.32174639e-02, 2.20540822e-01 ]
      - [ 1.02413706e-01, 1.63913727e-01, 9.09211412e-02, 1.40197814e-01,
          5.11615463e-02, 1.96519539e-01, 2.33648583e-01, 0., 0., 0., 0.,
          0., 0., 0., 2.34998330e-01, 1.43574610e-01, 1.84145659e-01,
          2.27706030e-01, 1.52758703e-01, 1.25665247e-01, 1.26526788e-01,
          1.43685311e-01, 6.06011450e-02, 1.29036725e-01, 2.75957346e-01,
          1.70656890e-01, 0., 0., 0., 0., 0., 0., 2.21253693e-01, 0., 0.,
          6.39433488e-02, 0., 0., 0., 0., 0., 0., 0., 0., 0.,
          1.52089611e-01, 3.17235678e-01, 2.13780954e-01, 4.71376814e-02,
          0., 5.72709814e-02, 0., 0., 0., 0., 0., 4.32915151e-01,
          1.51271179e-01, 1.00399196e-01, 0., 1.39002398e-01,
          4.82275151e-02, 5.06615378e-02, 5.74941412e-02 ]
      - [ 5.99326827e-02, 1.91140458e-01, 1.79021806e-01, 2.09019408e-01,
          1.32884726e-01, 1.37903348e-01, 7.83580765e-02, 8.17602277e-02,
          0., 7.84400553e-02, 9.27082524e-02, 1.88180387e-01, 0., 0.,
          2.73011290e-02, 1.66943297e-01, 3.26095633e-02, 0.,
          8.01761746e-02, 2.20541745e-01, 1.84201956e-01, 1.93819359e-01,
          1.63093463e-01, 1.53893098e-01, 7.42816478e-02, 0.,
          6.69864342e-02, 0., 2.03832984e-01, 1.87424749e-01,
          2.29306128e-02, 0., 1.33261293e-01, 1.73744678e-01,
          1.41538724e-01, 2.09005829e-02, 1.29998147e-01, 2.05861982e-02,
          0., 0., 6.63665906e-02, 1.25576518e-02, 1.33190855e-01,
          1.52745232e-01, 2.37554833e-01, 1.45636633e-01, 1.44755080e-01,
          8.51756185e-02, 6.81516975e-02, 1.24719851e-01, 8.92682746e-02,
          1.73584804e-01, 8.76639187e-02, 0., 7.53176361e-02,
          8.64909813e-02, 5.47091141e-02, 2.32221380e-01, 2.91172951e-01,
          9.45486277e-02, 1.10681571e-01, 0., 7.39330426e-02,
          7.76178017e-02 ]
      - [ 9.79018509e-02, 1.62532896e-01, 2.45598629e-01, 1.61376655e-01,
          4.02629003e-02, 0., 0., 0., 0., 0., 0., 0., 1.84945151e-01,
          1.66104078e-01, 1.48986384e-01, 1.50481462e-01, 0., 0., 0., 0.,
          1.63260773e-01, 2.71373570e-01, 2.17634663e-01, 1.41853780e-01,
          9.53107849e-02, 1.93864390e-01, 0., 0., 1.19700506e-01, 0., 0.,
          6.69286996e-02, 7.11782128e-02, 9.66122597e-02, 1.35007128e-01,
          2.69048154e-01, 0., 0., 0., 0., 0., 0., 2.71983910e-02,
          2.01162234e-01, 2.25488722e-01, 1.45359576e-01, 1.00201823e-01,
          7.16256127e-02, 8.34688172e-02, 1.12786382e-01, 1.49447963e-01,
          1.58493608e-01, 0., 0., 1.41914323e-01, 1.14199691e-01,
          1.57828152e-01, 1.86342508e-01, 2.23049015e-01, 1.90437391e-01,
          1.05885655e-01, 1.68215424e-01, 1.31418198e-01, 0. ]
      - [ 1.33980691e-01, 2.75842160e-01, 1.77617833e-01, 0., 0.,
          9.67411250e-02, 6.91350624e-02, 0., 1.08383194e-01,
          8.23582411e-02, 0., 4.49622609e-02, 7.73469210e-02,
          9.47421417e-02, 1.01565838e-01, 3.10483817e-02, 0., 0.,
          9.69057605e-02, 1.91413194e-01, 2.57324338e-01, 1.79687232e-01,
          1.01302490e-01, 0., 1.01757802e-01, 1.28781870e-01,
          2.26028174e-01, 1.40631855e-01, 0., 0., 0., 0., 8.17174762e-02,
          6.72924668e-02, 8.79756436e-02, 5.40997051e-02, 2.20051020e-01,
          1.48448706e-01, 3.37968320e-02, 0., 0., 0., 0., 0.,
          2.93978274e-01, 2.23356783e-01, 1.10657595e-01, 7.54174739e-02,
          0., 9.65465456e-02, 1.10891350e-01, 2.02419549e-01, 0.,
          6.75002784e-02, 1.68183774e-01, 1.39584273e-01, 1.82033315e-01,
          1.04275919e-01, 1.24788105e-01, 2.54331023e-01, 1.94262534e-01,
          1.43666863e-01, 5.11540659e-02, 1.13956615e-01 ]
      - [ 1.50513485e-01, 1.47567347e-01, 1.36733383e-01, 1.77141920e-01,
          7.46720806e-02, 0., 1.01791881e-01, 0., 1.27758741e-01, 0.,
          1.05892763e-01, 0., 0., 1.89469323e-01, 2.06463113e-01,
          1.50776893e-01, 0., 8.12905058e-02, 5.95621169e-02,
          4.87297177e-02, 2.58758128e-01, 2.25200772e-01, 1.47015393e-01,
          1.23874582e-01, 1.38551205e-01, 7.26805925e-02, 1.60771430e-01,
          1.19326487e-01, 4.30083796e-02, 6.06722757e-02, 9.57712010e-02,
          0., 1.60275027e-02, 1.46762833e-01, 2.74824947e-01, 0., 0., 0.,
          0., 0., 0., 0., 1.25651896e-01, 2.00363547e-01, 8.48624110e-02,
          1.58977047e-01, 8.35821405e-02, 8.65435749e-02, 7.01268613e-02,
          1.47240326e-01, 1.68997362e-01, 0., 0., 0., 1.07741520e-01,
          1.94671452e-01, 1.58295572e-01, 2.16733977e-01, 2.52387106e-01,
          1.56805187e-01, 0., 1.12198040e-01, 1.10495046e-01,
          1.56028852e-01 ]
      - [ 1.26022324e-01, 1.78506210e-01, 2.25285411e-01, 1.26133397e-01,
          4.66068722e-02, 0., 0., 0., 1.85461357e-01, 9.52024311e-02,
          1.84302017e-01, 0., 0., 0., 0., 1.19804434e-01, 0.,
          1.03750946e-02, 1.84498187e-02, 2.82634556e-01, 1.96297020e-01,
          8.69645253e-02, 3.99608277e-02, 9.67621356e-02, 0.,
          6.99623227e-02, 9.83840004e-02, 2.29530215e-01, 6.73030615e-02,
          0., 0., 0., 2.17921942e-01, 6.70052320e-02, 8.24908912e-02,
          1.34777829e-01, 1.58910155e-01, 1.24729797e-01, 9.03657675e-02,
          6.32334054e-02, 8.44695494e-02, 7.03488365e-02, 6.74251989e-02,
          1.18348032e-01, 2.49218941e-01, 1.64686769e-01, 1.16313130e-01,
          7.71825239e-02, 0., 1.37595564e-01, 7.94118196e-02,
          1.84812292e-01, 1.71386108e-01, 8.66032988e-02, 1.30511597e-01,
          1.21691667e-01, 7.77807012e-02, 1.02582976e-01, 2.12756142e-01,
          2.73672014e-01, 1.69795677e-01, 1.27953693e-01, 3.69252339e-02,
          4.21481356e-02 ]
      - [ 2.78014690e-01, 1.35544389e-01, 1.14267632e-01, 7.21790791e-02,
          8.12739879e-02, 4.85600010e-02, 1.16713315e-01, 2.11115614e-01,
          1.91894770e-01, 0., 0., 0., 2.04264503e-02, 0., 4.27341694e-03,
          0., 2.50538677e-01, 1.65698424e-01, 6.57166541e-02,
          5.12356274e-02, 1.24300845e-01, 1.67424813e-01, 1.76688269e-01,
          1.27486482e-01, 2.24243566e-01, 0., 0., 0., 0., 0., 0.,
          1.35140523e-01, 2.05622107e-01, 1.70886874e-01, 7.94642419e-02,
          1.09982759e-01, 0., 1.41488135e-01, 0., 0., 0., 0., 0.,
          1.90477833e-01, 9.68782082e-02, 2.52222270e-01, 1.69116855e-01,
          1.38632596e-01, 0., 0., 1.49877399e-01, 0., 4.44723926e-02,
          1.09260283e-01, 1.16893776e-01, 1.29308850e-01, 1.77575171e-01,
          2.19268113e-01, 2.24553496e-01, 2.23165229e-01, 7.20183253e-02,
          6.73636645e-02, 0., 4.05123830e-02 ]
      - [ 1.92911819e-01, 2.58388162e-01, 1.49764255e-01, 1.38605505e-01,
          1.31812215e-01, 5.64053170e-02, 0., 1.20394468e-01,
          1.50623005e-02, 1.90593094e-01, 1.19477585e-01, 1.01841494e-01,
          0., 0., 0., 4.90310565e-02, 0., 2.49874324e-01, 1.41597018e-01,
          9.12491232e-02, 1.97657868e-01, 1.14505947e-01, 1.12172283e-01,
          1.42609403e-01, 1.80746287e-01, 2.05615968e-01, 7.16203824e-02,
          9.85852182e-02, 0., 5.10445833e-02, 0., 0., 1.46054193e-01,
          1.77352745e-02, 1.21814147e-01, 0., 1.24716096e-01,
          1.17966898e-01, 7.05628842e-02, 0., 0., 0., 0., 1.41649202e-01,
          1.60320908e-01, 1.84925407e-01, 2.26875514e-01, 2.20703840e-01,
          9.63099673e-02, 0., 1.03116110e-01, 0., 0., 0., 0., 0.,
          3.66136014e-01, 1.99474350e-01, 9.41788182e-02, 0.,
          8.77570584e-02, 9.98043865e-02, 0., 1.26660198e-01 ]
      - [ 1.33610502e-01, 9.01809782e-02, 2.17991367e-01, 2.43778199e-01,
          1.49573218e-02, 1.45735949e-01, 1.12874351e-01, 0.,
          1.13554724e-01, 6.50871843e-02, 1.61850289e-01, 1.27932608e-01,
          0., 0., 1.44332424e-01, 1.83751762e-01, 9.18732136e-02,
          1.40088394e-01, 7.90257901e-02, 1.23445511e-01, 2.38751873e-01,
          1.01994507e-01, 1.13071188e-01, 8.45874920e-02, 1.40220419e-01,
          2.84891665e-01, 0., 0., 9.48237479e-02, 1.16263948e-01,
          5.74959368e-02, 1.09054051e-01, 2.30851650e-01, 8.12778994e-02,
          3.10203545e-02, 6.94832951e-02, 0., 7.42698535e-02,
          7.86733478e-02, 0., 0., 7.27179274e-02, 4.12180610e-02,
          1.32338554e-01, 1.00651443e-01, 2.12476060e-01, 1.93213716e-01,
          1.45993009e-01, 0., 8.56375769e-02, 0., 5.96951544e-02,
          1.03023678e-01, 1.32702723e-01, 1.73231691e-01, 1.36931807e-01,
          1.82230070e-01, 1.45469815e-01, 2.25669593e-01, 1.44144386e-01,
          7.93930888e-02, 0., 8.40979069e-02, 0. ]
      - [ 2.02960134e-01, 1.74238548e-01, 5.16735353e-02, 1.16085656e-01,
          8.94980803e-02, 1.08165137e-01, 1.62333205e-01, 0., 0., 0., 0.,
          0., 0., 0., 0., 0., 2.29089975e-01, 1.50743872e-01,
          1.02248974e-01, 1.33233443e-01, 1.29135177e-01, 1.16435833e-01,
          1.73242345e-01, 1.57113001e-01, 2.63435930e-01, 0., 0., 0., 0.,
          0., 0., 3.09236944e-02, 1.56712651e-01, 7.93114956e-03,
          1.36466756e-01, 1.51795834e-01, 0., 1.46482795e-01,
          8.32402110e-02, 0., 0., 0., 0., 2.45326206e-01, 1.79255530e-01,
          1.67910621e-01, 1.56753868e-01, 1.58627495e-01, 5.46177141e-02,
          1.02350749e-01, 0., 1.15023591e-01, 1.04376420e-01,
          1.37264535e-01, 1.29401878e-01, 2.12075159e-01, 1.52818218e-01,
          1.75701261e-01, 1.63768128e-01, 1.78127334e-01, 1.85414448e-01,
          1.66981354e-01, 1.83814853e-01, 1.25120521e-01 ]
      - [ 2.36140653e-01, 1.15240492e-01, 7.41912574e-02, 1.34757891e-01,
          1.57407552e-01, 1.15194209e-01, 4.36019264e-02, 8.73308778e-02,
          0., 5.82385696e-02, 0., 1.80826560e-01, 1.17241800e-01,
          1.22423247e-01, 9.02885199e-02, 1.96294621e-01, 1.87639259e-02,
          0., 0., 0., 1.82126880e-01, 2.36887455e-01, 2.41857395e-01,
          6.27500042e-02, 1.07837178e-01, 5.92322052e-02, 1.19733617e-01,
          8.15703124e-02, 1.66157082e-01, 1.10254526e-01, 5.58459014e-02,
          0., 0., 1.07300922e-01, 1.94958732e-01, 1.77743375e-01,
          1.64031368e-02, 1.17169186e-01, 8.63999501e-02, 0., 0., 0., 0.,
          1.72214910e-01, 1.70198575e-01, 1.68028727e-01, 1.20710075e-01,
          1.53034672e-01, 1.41585052e-01, 1.78427398e-01, 1.74167708e-01,
          0., 0., 0., 0., 1.69096529e-01, 1.75566837e-01, 2.89054751e-01,
          2.02377751e-01, 0., 6.51763752e-02, 0., 1.38966784e-01, 0. ]
      - [ 1.84331853e-02, 1.85404405e-01, 2.63274848e-01, 1.30171046e-01,
          0., 0., 6.38032928e-02, 0., 0., 8.87665302e-02, 1.20936066e-01,
          1.12902932e-01, 1.01254195e-01, 1.06460698e-01, 1.35180742e-01,
          1.31226316e-01, 0., 8.70183408e-02, 9.06521976e-02,
          1.20714508e-01, 1.20130345e-01, 1.62334278e-01, 2.25801140e-01,
          1.90065697e-01, 1.32404447e-01, 4.12016474e-02, 1.37342796e-01,
          1.15931593e-01, 1.26775950e-01, 7.88370967e-02, 8.88342112e-02,
          8.20255503e-02, 8.24540406e-02, 1.03990570e-01, 9.19545069e-02,
          1.30313456e-01, 1.66747123e-01, 1.07904322e-01, 9.31975842e-02,
          1.18795015e-01, 0., 3.95110138e-02, 5.89884892e-02,
          1.63823143e-01, 1.71824202e-01, 1.84344918e-01, 1.82860509e-01,
          1.30184472e-01, 1.29288360e-01, 1.91361085e-01, 2.01781213e-01,
          0., 0., 0., 1.69051997e-02, 1.25542253e-01, 1.84153512e-01,
          2.19260573e-01, 2.52666295e-01, 1.31433338e-01, 0., 0., 0.,
          1.07986808e-01 ]
      - [ 3.67831774e-02, 1.78918481e-01, 2.24182397e-01, 2.28255764e-01,
          1.35240465e-01, 0., 0., 0., 0., 0., 3.26461121e-02,
          2.31625527e-01, 1.62149057e-01, 3.23410667e-02, 1.15716375e-01,
          9.16485637e-02, 3.53099443e-02, 1.51819497e-01, 0.,
          5.59870191e-02, 0., 2.45716438e-01, 2.42432088e-01, 0.,
          1.82510749e-01, 5.81057779e-02, 0., 6.51213378e-02, 0.,
          1.08658463e-01, 8.33628029e-02, 7.87981674e-02, 1.08414061e-01,
          3.47873941e-02, 1.61782131e-01, 1.20719612e-01, 1.44116327e-01,
          8.08588862e-02, 1.40116096e-01, 3.54808457e-02, 0.,
          6.71185851e-02, 0., 1.94609731e-01, 2.20770881e-01,
          1.29410103e-01, 1.39825463e-01, 1.67376161e-01, 8.45580101e-02,
          1.90772101e-01, 1.57024100e-01, 2.97313184e-02, 0., 0.,
          2.92132143e-02, 1.74203500e-01, 1.25081539e-01, 2.36914799e-01,
          1.83216393e-01, 2.19505697e-01, 9.27835256e-02, 0.,
          6.53331205e-02, 7.51161948e-02 ]
      - [ 1.25723124e-01, 1.60109416e-01, 1.26791716e-01, 1.16709441e-01,
          1.69077918e-01, 1.17438525e-01, 3.23804505e-02, 0.,
          3.06186751e-02, 9.53723956e-03, 3.75734903e-02, 4.30752970e-02,
          1.29297212e-01, 1.41482577e-01, 1.80678785e-01, 1.41247600e-01,
          6.59475848e-02, 0., 5.72147369e-02, 0., 2.29052454e-01,
          1.63542509e-01, 1.81801781e-01, 0., 1.94241345e-01,
          1.48334011e-01, 2.17538793e-02, 0., 0., 6.70660064e-02,
          3.34537923e-02, 0., 1.24296576e-01, 4.61234637e-02,
          1.40189856e-01, 1.35443747e-01, 2.58506447e-01, 1.55081391e-01,
          0., 0., 0., 0., 1.72137097e-02, 0., 2.23591670e-01,
          3.26869369e-01, 1.10343195e-01, 0., 1.10932894e-01,
          9.29133967e-02, 1.00284420e-01, 8.57305825e-02, 1.14650980e-01,
          4.53181081e-02, 1.93039104e-01, 1.36263996e-01, 1.35115892e-01,
          2.15559006e-01, 1.32261559e-01, 1.54719278e-01, 2.46172845e-01,
          9.19392109e-02, 7.58642778e-02, 0. ]
      - [ 3.54434587e-02, 2.46016160e-01, 2.48520583e-01, 7.72242099e-02,
          0., 0., 0., 0., 0., 1.65197939e-01, 1.93526357e-01, 0., 0., 0.,
          0., 0., 1.03355341e-01, 2.05412492e-01, 0., 1.94118679e-01,
          1.31711081e-01, 1.70095325e-01, 1.42739296e-01, 1.80077672e-01,
          1.77960843e-01, 0., 1.29245356e-01, 0., 1.18567534e-01,
          1.25019312e-01, 0., 4.99083437e-02, 1.25671878e-01, 0.,
          1.40100449e-01, 1.30380958e-01, 1.27325282e-01, 8.16581920e-02,
          0., 1.03142403e-01, 1.00761488e-01, 7.67657161e-02, 0.,
          2.23845705e-01, 1.45019844e-01, 1.42548770e-01, 1.09293707e-01,
          1.79756477e-01, 1.64383918e-01, 1.73419595e-01, 0., 0., 0., 0.,
          1.92876924e-02, 1.42156348e-01, 3.34668905e-01, 1.12512216e-01,
          8.22447240e-02, 1.12979844e-01, 1.28433630e-01, 1.57420620e-01,
          1.32610098e-01, 1.30867451e-01 ]
      - [ 2.80402265e-02, 1.22903399e-01, 2.24326000e-01, 2.37895682e-01,
          1.49214074e-01, 8.21714923e-02, 8.81488621e-02, 0., 0.,
          9.76340994e-02, 1.33395851e-01, 1.88371181e-01, 0.,
          1.04191869e-01, 1.42390609e-01, 1.33248106e-01, 0.,
          7.63264969e-02, 2.50085503e-01, 1.16777375e-01, 2.20392212e-01,
          1.22320287e-01, 1.10757679e-01, 1.08144671e-01, 1.82622708e-02,
          1.60667256e-01, 2.08023384e-01, 2.24926457e-01, 0., 0.,
          6.07149415e-02, 0., 1.79651126e-01, 3.09698079e-02,
          2.67499033e-02, 1.20964646e-01, 1.16789490e-01, 0.,
          8.94796103e-02, 7.94276372e-02, 6.93017840e-02, 0.,
          7.22381696e-02, 5.63520975e-02, 1.47897929e-01, 1.95278436e-01,
          1.92664042e-01, 1.41257107e-01, 1.43558830e-01, 8.15048441e-02,
          7.98951909e-02, 0., 0., 4.28075977e-02, 1.88138813e-01,
          1.75181746e-01, 1.90920413e-01, 1.78388447e-01, 1.52208909e-01,
          0., 1.06191985e-01, 9.98913944e-02, 7.99651667e-02,
          8.97151902e-02 ]
      - [ 1.54321909e-01, 1.47385210e-01, 2.35904694e-01, 1.56105638e-01,
          0., 2.66254935e-02, 9.44060311e-02, 9.43292603e-02,
          1.09652296e-01, 1.03277497e-01, 1.62096083e-01, 1.13689952e-01,
          0., 0., 0., 3.86332311e-02, 2.31441706e-01, 9.27219912e-02, 0.,
          1.42323732e-01, 1.72232479e-01, 2.05862924e-01, 1.23959877e-01,
          1.26062945e-01, 2.20970497e-01, 2.20489297e-02, 0.,
          1.18544221e-01, 1.17175698e-01, 7.32953623e-02, 9.08300504e-02,
          8.17568898e-02, 9.73922685e-02, 0., 0., 0., 1.78697869e-01,
          1.64478838e-01, 0., 0., 0., 4.79522943e-02, 0., 0.,
          2.72169769e-01, 1.34708613e-01, 1.36597738e-01, 1.56229645e-01,
          2.14653879e-01, 1.15853056e-01, 1.07814953e-01, 1.25642672e-01,
          0., 0., 2.09267046e-02, 1.24276899e-01, 2.57688493e-01,
          2.68710494e-01, 1.11440301e-01, 0., 9.39485282e-02,
          1.22785084e-01, 1.29356489e-01, 9.43479687e-02 ]
      - [ 3.26119900e-01, 2.29381531e-01, 0., 0., 8.55538398e-02,
          7.05378577e-02, 0., 6.77205622e-02, 4.60362956e-02, 0., 0., 0.,
          0., 0., 0., 0., 5.25069535e-02, 9.67950225e-02, 1.01319619e-01,
          1.52584642e-01, 1.83995098e-01, 1.40264750e-01, 2.35953286e-01,
          1.06501698e-01, 2.23449379e-01, 2.18295783e-01, 0., 0.,
          1.17277451e-01, 0., 5.36759980e-02, 0., 1.57856226e-01, 0.,
          8.41141343e-02, 0., 0., 1.15142338e-01, 0., 1.02126941e-01, 0.,
          1.74711674e-01, 0., 0., 1.75739869e-01, 1.46921724e-01,
          1.06533669e-01, 2.79759973e-01, 1.40757859e-01, 1.46601394e-01,
          1.11812018e-01, 1.23863012e-01, 8.84335935e-02, 0.,
          6.73325546e-03, 1.45358235e-01, 2.18505710e-01, 2.11827472e-01,
          2.61231273e-01, 1.78616017e-01, 1.06334560e-01, 0.,
          1.05307408e-01, 0. ]
      - [ 1.64954573e-01, 2.11254746e-01, 2.33645737e-01, 1.83546185e-01,
          0., 0., 0., 0., 0., 0., 0., 1.91510960e-01, 1.03398405e-01,
          1.17806166e-01, 3.25857215e-02, 7.13131204e-02, 0.,
          1.25662804e-01, 0., 1.45661056e-01, 1.57530561e-01,
          1.52104095e-01, 1.49056047e-01, 1.39914840e-01, 2.19096661e-01,
          1.75109833e-01, 1.36133999e-01, 0., 3.96016464e-02,
          7.88103566e-02, 5.35605438e-02, 1.01559341e-01, 2.05846742e-01,
          1.74483478e-01, 1.77672952e-01, 0., 1.80052239e-02,
          4.07924727e-02, 2.35399641e-02, 4.87225465e-02, 0.,
          3.34593877e-02, 0., 2.09076628e-01, 2.09824130e-01,
          7.95502141e-02, 1.11123033e-01, 6.48026988e-02, 0., 0.,
          4.61243317e-02, 2.50465274e-01, 1.56799480e-01, 1.07678957e-01,
          8.51124600e-02, 1.72122017e-01, 1.31425813e-01, 1.54698819e-01,
          1.17074482e-01, 3.08578223e-01, 1.35993913e-01, 0., 0., 0. ]
      - [ 1.88932493e-01, 2.14754000e-01, 1.74729913e-01, 2.27372840e-01,
          0., 3.64839137e-02, 0., 0., 9.25742686e-02, 1.53218389e-01,
          1.51735246e-01, 0., 1.16941914e-01, 0., 4.32385225e-03,
          9.74075273e-02, 1.63205802e-01, 7.12212324e-02, 1.14977630e-02,
          2.09683195e-01, 1.50789514e-01, 1.58207119e-01, 1.88427299e-01,
          1.33503586e-01, 1.85071409e-01, 1.72337532e-01, 0., 0., 0., 0.,
          1.15138881e-01, 6.87059462e-02, 2.29955260e-02, 1.07233718e-01,
          1.28116444e-01, 1.09716624e-01, 1.01617604e-01, 0.,
          1.02507100e-01, 9.44947898e-02, 0., 0., 0., 0., 1.71377972e-01,
          2.15028808e-01, 1.90836981e-01, 2.60242969e-01, 1.23230323e-01,
          0., 4.08950262e-02, 0., 0., 0., 6.05025813e-02, 2.31361061e-01,
          2.56575972e-01, 2.51157194e-01, 9.34379995e-02, 0., 0.,
          9.69334021e-02, 1.52631342e-01, 5.62572554e-02 ]
      - [ 1.87281340e-01, 1.62201315e-01, 9.82015580e-02, 2.19336554e-01,
          1.36365473e-01, 2.34540105e-02, 0., 0., 0., 0., 0.,
          1.92217514e-01, 1.42679602e-01, 1.19763188e-01, 1.76983625e-01,
          0., 1.04268558e-01, 1.18505746e-01, 5.00264615e-02, 0.,
          1.71033069e-01, 1.48002908e-01, 1.97341517e-01, 1.67764485e-01,
          2.48013988e-01, 4.11538929e-02, 0., 0., 0., 1.07804872e-01,
          1.04029536e-01, 5.00345081e-02, 1.46205604e-01, 9.46009532e-02,
          1.91622585e-01, 2.24869981e-01, 0., 0., 0., 0., 0., 0.,
          5.83753623e-02, 2.10964397e-01, 1.62229940e-01, 1.55963287e-01,
          1.00893572e-01, 0., 1.24881268e-01, 1.29128605e-01,
          1.74486428e-01, 0., 0., 0., 2.01672360e-01, 1.44967511e-01,
          1.46736845e-01, 1.68877110e-01, 2.92070806e-01, 0., 0.,
          1.12724535e-01, 1.16647713e-01, 1.11853488e-01 ]
      - [ 1.42691702e-01, 1.38383374e-01, 1.96743205e-01, 2.74213374e-01,
          0., 0., 0., 0., 0., 0., 6.05995245e-02, 2.17795700e-01,
          1.65883929e-01, 1.53580800e-01, 1.05616331e-01, 1.49720654e-01,
          1.17235310e-01, 0., 0., 1.58219635e-01, 2.15131715e-01,
          1.52442068e-01, 1.33436769e-01, 1.10125802e-01, 2.64446199e-01,
          9.01314244e-02, 0., 0., 0., 6.91783279e-02, 1.00886598e-01,
          5.10252528e-02, 3.85864347e-01, 1.28786549e-01, 0., 0., 0., 0.,
          0., 0., 5.47335707e-02, 0., 6.46608919e-02, 1.11273997e-01,
          4.22666222e-02, 1.05535425e-01, 1.02539085e-01, 9.86118242e-02,
          1.79923043e-01, 1.35194873e-02, 0., 0., 0., 0., 0., 0.,
          3.77324581e-01, 2.89523512e-01, 0., 0., 0., 0., 0., 0. ]
      - [ 3.74877751e-01, 1.41428307e-01, 9.76879001e-02, 1.54033199e-01,
          3.51922885e-02, 0., 0., 0., 0., 0., 0., 0., 0., 0.,
          6.10909015e-02, 1.90901116e-01, 0., 0., 2.61078477e-02,
          1.43755320e-02, 1.65617406e-01, 2.31518865e-01, 2.14789987e-01,
          2.84003466e-01, 2.20265120e-01, 0., 0., 0., 0., 0., 0., 0.,
          2.88488448e-01, 4.68256101e-02, 0., 0., 0., 0., 0., 0., 0., 0.,
          0., 0., 1.05434544e-01, 1.93527624e-01, 1.64890617e-01,
          2.77482331e-01, 2.90798508e-02, 0., 0., 9.59131122e-03,
          1.07871816e-02, 0., 1.77388098e-02, 2.32164919e-01,
          2.93592662e-01, 2.06673324e-01, 1.95318058e-01, 2.06395254e-01,
          6.14104830e-02, 2.61078477e-02, 0., 0. ]
      - [ 1.41280249e-01, 1.98638454e-01, 1.42139509e-01, 1.33912623e-01,
          0., 1.46005109e-01, 1.00025535e-01, 1.01936042e-01,
          8.61930847e-02, 0., 1.01179168e-01, 9.04091969e-02, 0., 0.,
          1.03595093e-01, 1.64183915e-01, 1.24429055e-01, 0.,
          1.59903020e-01, 1.36319950e-01, 2.09039062e-01, 1.45943224e-01,
          1.65659577e-01, 1.89016327e-01, 1.55834734e-01, 7.92441741e-02,
          4.09123413e-02, 0., 0., 1.62356853e-01, 1.33975059e-01, 0.,
          1.27471089e-01, 1.43830195e-01, 3.37250791e-02, 0.,
          1.61567286e-01, 0., 1.18780732e-01, 0., 1.23544484e-01,
          8.08290467e-02, 1.00747831e-01, 1.61313087e-01, 1.66818261e-01,
          1.56528160e-01, 1.53964609e-01, 1.89376935e-01, 7.99739659e-02,
          8.72535333e-02, 8.66625607e-02, 1.59144431e-01, 1.32301167e-01,
          0., 1.06307998e-01, 1.37988985e-01, 1.38716519e-01,
          1.44141063e-01, 1.86519951e-01, 2.42757544e-01, 2.27268085e-01,
          1.50934625e-02, 0., 6.62696213e-02 ]
      - [ 1.46890566e-01, 2.89208204e-01, 1.07922234e-01, 1.37100473e-01,
          0., 0., 5.53116798e-02, 7.11579174e-02, 1.06207468e-01,
          2.04437599e-01, 0., 0., 0., 0., 0., 0., 2.21645385e-01,
          1.88819766e-01, 1.51130915e-01, 6.26558289e-02, 9.23017338e-02,
          1.48103893e-01, 1.09731734e-01, 2.00829357e-01, 2.59898007e-01,
          1.28689811e-01, 2.85396557e-02, 0., 0., 4.69511151e-02, 0., 0.,
          1.70785084e-01, 0., 0., 1.03868432e-01, 8.14724565e-02,
          8.00185949e-02, 1.28973186e-01, 0., 0., 0., 0., 2.03654096e-01,
          1.49399281e-01, 1.52886465e-01, 1.06367186e-01, 1.69529870e-01,
          1.66548833e-01, 8.34254324e-02, 1.03313118e-01, 1.10978045e-01,
          0., 0., 4.13331855e-03, 1.90699875e-01, 3.03923935e-01,
          2.13794082e-01, 8.97003561e-02, 0., 1.32708341e-01,
          7.54688010e-02, 1.18395738e-01, 2.17404589e-01 ]
      - [ 1.09985478e-01, 1.27440259e-01, 1.17176421e-01, 2.51906395e-01,
          4.68377247e-02, 0., 0., 0., 0., 0., 3.81814055e-02,
          1.94912881e-01, 1.77381322e-01, 1.22239187e-01, 1.01608589e-01,
          5.91708198e-02, 5.90692535e-02, 0., 3.28904130e-02,
          4.13412862e-02, 1.54853716e-01, 1.53513059e-01, 2.72165745e-01,
          1.21043310e-01, 1.17174499e-01, 0., 4.34457846e-02,
          1.42105445e-01, 1.30182698e-01, 9.91253331e-02, 3.97469029e-02,
          1.89605206e-01, 6.24869391e-02, 1.01519600e-01, 1.68125749e-01,
          2.05382809e-01, 1.39136672e-01, 7.57010207e-02, 0.,
          6.41949177e-02, 0., 0., 0., 2.02533916e-01, 1.55109033e-01,
          6.78289756e-02, 2.12429345e-01, 1.76733211e-01, 8.82591680e-02,
          9.33304653e-02, 2.36587021e-02, 2.32166380e-01, 0.,
          5.94655909e-02, 1.29233584e-01, 1.85840487e-01, 1.66752711e-01,
          1.68957546e-01, 1.82748973e-01, 1.66443333e-01, 1.97315693e-01,
          8.88875723e-02, 0., 0. ]
      - [ 4.86225113e-02, 1.35493562e-01, 2.14263558e-01, 2.39225149e-01,
          1.16024390e-01, 0., 0., 3.92464548e-02, 0., 0., 7.12035075e-02,
          1.44510075e-01, 1.38959557e-01, 1.66992977e-01, 7.09452033e-02,
          1.29881650e-01, 6.90797418e-02, 0., 5.47367148e-02,
          2.10291415e-01, 1.88175499e-01, 1.45455897e-01, 1.03132293e-01,
          6.60779700e-02, 2.30444334e-02, 1.70581296e-01, 2.86781698e-01,
          0., 1.08595483e-01, 0., 8.45251009e-02, 6.46324009e-02,
          1.89907447e-01, 1.19167760e-01, 1.55455902e-01, 1.45878166e-01,
          0., 7.34991357e-02, 0., 8.97678509e-02, 6.97370991e-02, 0., 0.,
          7.58105069e-02, 0., 2.52278388e-01, 1.30340323e-01,
          1.04577586e-01, 5.04932255e-02, 1.03120945e-01, 4.79242541e-02,
          0., 1.07191950e-01, 1.96382254e-01, 1.85993448e-01,
          1.92434117e-01, 1.60333052e-01, 1.94797873e-01, 1.96958825e-01,
          0., 0., 0., 1.96350008e-01, 1.34255692e-01 ]
      - [ 4.67449725e-02, 1.00453742e-01, 1.26854211e-01, 8.88883546e-02,
          2.92130619e-01, 0., 0., 0., 0., 0., 0., 0., 2.91696250e-01,
          1.44689798e-01, 1.03361167e-01, 1.09061450e-01, 1.74688160e-01,
          1.13367453e-01, 0., 0., 2.55353600e-01, 1.92347243e-01,
          1.50364891e-01, 1.48664251e-01, 1.49538249e-01, 1.55230671e-01,
          0., 0., 2.08168641e-01, 0., 1.34124771e-01, 0., 2.34554991e-01,
          2.64986247e-01, 0., 0., 0., 0., 0., 9.09585357e-02,
          7.95158595e-02, 9.60228518e-02, 1.12533607e-01, 0., 0.,
          1.09909952e-01, 1.41580626e-01, 1.17855579e-01, 3.09275948e-02,
          2.33099371e-01, 0., 0., 0., 0., 0., 0., 2.22064197e-01,
          3.73354018e-01, 0., 0., 0., 0., 0., 0. ]
      - [ 2.09933758e-01, 2.59313941e-01, 1.55956358e-01, 0., 0.,
          3.45827937e-02, 0., 5.19721992e-02, 1.90717995e-01,
          1.70122281e-01, 8.71943980e-02, 0., 0., 0., 0., 0., 0.,
          2.04614222e-01, 1.63399473e-01, 1.46745488e-01, 1.68252662e-01,
          1.36700645e-01, 1.63880154e-01, 1.11581191e-01, 1.47451803e-01,
          1.50797784e-01, 1.51513994e-01, 8.99099112e-02, 1.15598679e-01,
          3.54690477e-02, 8.42383429e-02, 0., 4.24542017e-02,
          1.45264894e-01, 1.01239890e-01, 1.36617184e-01, 4.67548855e-02,
          7.87216499e-02, 1.05927475e-01, 1.15172409e-01, 0., 0., 0., 0.,
          0., 2.97058105e-01, 1.53438404e-01, 2.22584218e-01,
          7.64826238e-02, 1.10193081e-01, 9.83407423e-02, 1.22014679e-01,
          0., 1.40101641e-01, 3.83651070e-02, 1.40773296e-01,
          1.71786174e-01, 2.89492577e-01, 1.77702770e-01, 1.18301436e-01,
          1.27775371e-01, 9.59261507e-02, 0., 0. ]
      - [ 1.46318242e-01, 1.98082060e-01, 1.02285676e-01, 2.08324596e-01,
          8.93797576e-02, 0., 0., 0., 0., 0., 0., 1.36738464e-01, 0.,
          1.56186372e-01, 1.12799786e-01, 5.26111536e-02, 0.,
          1.50473043e-01, 1.01133212e-01, 1.20267443e-01, 1.66035026e-01,
          2.08000422e-01, 1.40763283e-01, 2.53090143e-01, 1.45736828e-01,
          6.96782395e-02, 0., 1.46711886e-01, 9.88218263e-02,
          1.09350942e-01, 0., 9.01979133e-02, 2.11733282e-01,
          1.66703701e-01, 1.68822229e-01, 1.32207647e-01, 0., 0., 0., 0.,
          0., 2.73024403e-02, 1.58270553e-01, 1.50902256e-01,
          1.49127677e-01, 1.76422283e-01, 1.12564281e-01, 7.25996494e-02,
          5.88215981e-03, 0., 0., 1.02562219e-01, 0., 1.02372535e-01,
          2.24092409e-01, 1.84806362e-01, 1.77763611e-01, 1.75195143e-01,
          9.41108614e-02, 2.05102414e-01, 1.22234359e-01, 1.61704257e-01,
          2.03037202e-01, 0. ]
      - [ 2.44886130e-01, 1.61279052e-01, 1.66174755e-01, 1.03202961e-01,
          0., 0., 0., 0., 0., 0., 0., 0., 0., 1.78212836e-01,
          2.07136601e-01, 1.68544993e-01, 0., 0., 0., 1.21004842e-01,
          1.91346616e-01, 1.75735325e-01, 1.13534085e-01, 2.17952549e-01,
          3.44979167e-01, 3.16462405e-02, 0., 0., 0., 1.14899360e-01,
          1.29841849e-01, 0., 3.66948724e-01, 8.63063484e-02, 0., 0., 0.,
          0., 0., 0., 0., 0., 0., 0., 0., 1.08789362e-01, 7.60174692e-02,
          1.93573564e-01, 1.78696722e-01, 0., 0., 0., 0., 0.,
          2.86131110e-02, 3.59024294e-02, 4.52376872e-01, 1.57277152e-01,
          0., 1.06804453e-01, 0., 0., 0., 8.98007378e-02 ]
      - [ 1.14021972e-01, 1.58669114e-01, 1.73586160e-01, 3.10091883e-01,
          4.69135866e-02, 0., 5.63609600e-02, 0., 6.30812645e-02,
          3.84788699e-02, 8.72125998e-02, 7.16550723e-02, 0.,
          6.19206578e-02, 1.63179412e-01, 8.45777765e-02, 0.,
          1.56788789e-02, 5.33782691e-02, 3.14248025e-01, 1.58170268e-01,
          3.58247645e-02, 1.12985507e-01, 1.39191523e-01, 7.73894414e-02,
          1.30955964e-01, 3.26819420e-01, 0., 2.37671789e-02, 0.,
          6.77582845e-02, 0., 1.56652983e-02, 0., 1.35244792e-02, 0., 0.,
          2.28556283e-02, 6.70860559e-02, 4.61634956e-02, 6.80764541e-02,
          0., 6.93097636e-02, 3.35027017e-02, 1.87711194e-01,
          2.13779956e-01, 1.98082626e-01, 2.39824638e-01, 0.,
          7.18244463e-02, 7.98857734e-02, 0., 8.04289132e-02,
          2.76545525e-01, 1.38557732e-01, 1.32953569e-01, 8.42401311e-02,
          1.73563302e-01, 1.24465831e-01, 2.33140662e-01, 1.99004337e-01,
          0., 3.11332643e-02, 6.41379803e-02 ]
      - [ 2.45545387e-01, 1.46602020e-01, 9.25206244e-02, 5.41172214e-02,
          1.47425875e-01, 1.89771101e-01, 8.51338878e-02, 1.07625976e-01,
          0., 6.52632192e-02, 8.86389986e-02, 9.00194794e-02,
          6.61522374e-02, 0., 3.75962928e-02, 1.85330063e-01, 0., 0., 0.,
          9.93431732e-02, 3.01310956e-01, 2.05717400e-01, 9.60640684e-02,
          2.94220559e-02, 1.00318834e-01, 2.68843882e-02, 1.20805919e-01,
          1.82282463e-01, 1.60397753e-01, 0., 0., 0., 1.19646072e-01,
          6.61481172e-02, 3.69907767e-02, 1.36679292e-01, 1.53812259e-01,
          7.38255903e-02, 3.77390496e-02, 4.11132537e-02, 0.,
          1.78529739e-01, 9.64339301e-02, 1.56515554e-01, 1.67596579e-01,
          1.46022409e-01, 1.58341095e-01, 2.04351932e-01, 1.19976424e-01,
          1.45292357e-01, 1.51870102e-01, 8.30526054e-02, 0., 0.,
          1.39065370e-01, 1.70231923e-01, 1.24307901e-01, 2.04933196e-01,
          1.72579318e-01, 1.58502609e-01, 1.76505148e-01, 8.39130655e-02,
          1.23178467e-01, 0. ]
      - [ 5.17037883e-02, 1.70867369e-01, 2.78376311e-01, 1.17774032e-01,
          1.06250353e-01, 0., 0., 0., 0., 0., 0., 2.18199864e-01,
          1.39165103e-01, 1.65486172e-01, 1.16162762e-01, 1.61729768e-01,
          0., 8.24974105e-02, 0., 6.73478022e-02, 7.89803714e-02,
          1.48240268e-01, 3.01227659e-01, 1.06796511e-01, 1.99910149e-01,
          0., 5.74444309e-02, 0., 1.55895621e-01, 9.88556445e-02,
          5.89290336e-02, 6.72527775e-02, 3.12109049e-02, 1.00230739e-01,
          1.00300893e-01, 1.64196506e-01, 2.43460491e-01, 0., 0., 0., 0.,
          2.28276830e-02, 4.09983657e-02, 1.46409526e-01, 2.18655765e-01,
          1.95523545e-01, 4.01108749e-02, 1.14666574e-01, 1.58962518e-01,
          9.95461941e-02, 1.38565719e-01, 1.50395796e-01, 0., 0.,
          8.33549164e-03, 1.88592538e-01, 2.12336212e-01, 1.43901810e-01,
          1.82948142e-01, 2.08606869e-01, 0., 0., 2.76919901e-02,
          1.28446147e-01 ]
      - [ 1.37443587e-01, 1.55082777e-01, 2.34437823e-01, 1.04043908e-01,
          9.25912857e-02, 1.00200795e-01, 9.68795344e-02, 4.16169800e-02,
          1.20936416e-01, 0., 1.31739765e-01, 5.15245534e-02, 0.,
          1.40908346e-01, 1.20164774e-01, 9.70960408e-02, 0., 0.,
          2.22615227e-01, 2.34354094e-01, 1.30912215e-01, 1.74560845e-01,
          7.59124458e-02, 9.06339288e-02, 1.15241900e-01, 1.25097513e-01,
          2.49369845e-01, 1.88353643e-01, 0., 0., 0., 2.04327293e-02,
          1.56667650e-01, 1.72536433e-01, 0., 5.23729026e-02, 0.,
          1.02087662e-01, 1.15953103e-01, 0., 0., 1.18892454e-01, 0.,
          8.88386741e-02, 0., 2.49094993e-01, 1.56038046e-01,
          1.80236995e-01, 5.81423566e-02, 9.11144614e-02, 0.,
          7.63876066e-02, 9.51728746e-02, 7.91579559e-02, 1.93157002e-01,
          1.88667744e-01, 1.72358558e-01, 1.72115266e-01, 1.57151729e-01,
          1.56365559e-01, 1.66157722e-01, 8.80908221e-02, 8.89813751e-02,
          1.03748135e-01 ]
      - [ 1.76758885e-01, 1.69908032e-01, 1.84109569e-01, 1.33657262e-01,
          5.64180538e-02, 0., 1.30549759e-01, 1.25666568e-02,
          1.20947063e-01, 1.28688186e-01, 1.43950999e-01, 6.61382824e-02,
          0., 0., 0., 1.29610226e-01, 1.41157120e-01, 1.69548139e-01,
          4.44036834e-02, 1.90260485e-01, 1.40770063e-01, 9.96277556e-02,
          1.58717200e-01, 1.58384621e-01, 1.72572151e-01, 1.35595411e-01,
          6.55401126e-02, 1.23556405e-01, 1.32423982e-01, 7.22349882e-02,
          0., 8.50710943e-02, 1.53034911e-01, 1.98775142e-01,
          2.49611884e-02, 0., 1.22100368e-01, 9.41136479e-02,
          2.63701472e-02, 2.07860507e-02, 0., 2.09303305e-01,
          1.40007943e-01, 9.14841890e-02, 7.17770979e-02, 1.66494370e-01,
          1.98435113e-01, 1.33263528e-01, 0., 7.55118802e-02,
          9.65801552e-02, 7.96082318e-02, 0., 1.43318638e-01,
          2.07218468e-01, 1.77517265e-01, 1.14213541e-01, 1.90015897e-01,
          1.35769159e-01, 8.77088457e-02, 1.68743506e-01, 1.31629631e-01,
          1.56440854e-01, 1.33908957e-01 ]
      - [ 1.36696666e-01, 2.04507098e-01, 2.01767191e-01, 2.47367203e-01,
          0., 8.63861740e-02, 0., 0., 5.95170036e-02, 6.42945990e-02, 0.,
          1.49316832e-01, 1.24638982e-01, 1.00434594e-01, 1.06798254e-01,
          7.89860189e-02, 0., 9.18872207e-02, 9.38378200e-02,
          1.53969303e-01, 1.82933837e-01, 1.34594947e-01, 1.04641095e-01,
          2.76319534e-01, 1.57856956e-01, 0., 0., 0., 1.10615283e-01,
          1.36585787e-01, 4.21158932e-02, 0., 3.04440916e-01,
          2.05257460e-01, 0., 0., 0., 0., 0., 0., 6.38691336e-02, 0.,
          5.41900098e-02, 1.92273051e-01, 1.71500906e-01, 1.09712921e-01,
          1.03313297e-01, 9.20904726e-02, 1.50499046e-01, 1.52151212e-01,
          0., 2.47545615e-02, 0., 0., 0., 0., 3.71686786e-01,
          2.78044730e-01, 0., 0., 0., 0., 9.17460546e-02, 9.88621861e-02 ]
      - [ 3.78249615e-01, 1.47241399e-01, 7.93752298e-02, 7.14286342e-02,
          5.76628298e-02, 0., 0., 0., 0., 0., 0., 0., 0., 0., 0.,
          3.27971727e-02, 8.42573047e-02, 0., 1.20806985e-01,
          1.10845320e-01, 1.54982239e-01, 2.65250951e-01, 2.02841416e-01,
          1.70188963e-01, 1.67811483e-01, 2.13263333e-01, 1.01209633e-01,
          0., 5.91002218e-02, 0., 0., 0., 2.51748800e-01, 0., 0., 0., 0.,
          0., 7.66645446e-02, 0., 1.00448497e-01, 9.27151218e-02, 0.,
          3.15796882e-02, 0., 1.55987054e-01, 2.05945626e-01,
          2.79323697e-01, 0., 9.72337425e-02, 8.35587159e-02, 0.,
          3.95344459e-02, 1.22709133e-01, 1.29853645e-02, 1.78304777e-01,
          3.13877374e-01, 2.29605988e-01, 1.42675027e-01, 1.21588007e-01,
          1.93972960e-01, 1.04268931e-01, 0., 0. ]
      - [ 1.44314364e-01, 1.96668372e-01, 2.26651162e-01, 3.87885645e-02,
          7.50907511e-02, 0., 0., 0., 0., 0., 7.54244328e-02,
          1.13297284e-01, 4.44935858e-02, 1.24264292e-01, 1.28527015e-01,
          2.10225031e-01, 0., 0., 8.54295343e-02, 1.62991330e-01,
          1.34448349e-01, 1.93787590e-01, 1.12477385e-01, 1.59646213e-01,
          3.07984740e-01, 6.30326942e-02, 2.86547393e-02, 0.,
          9.27687213e-02, 1.02773525e-01, 8.59795436e-02, 5.23354933e-02,
          6.52040839e-02, 9.18008164e-02, 1.19348355e-01, 1.00047208e-01,
          1.10424742e-01, 1.75921232e-01, 0., 0., 0., 0., 0., 0.,
          1.35474324e-01, 1.90830797e-01, 2.45720476e-01, 1.39869332e-01,
          1.60447150e-01, 6.83860779e-02, 9.83003378e-02, 9.17181373e-02,
          0., 6.19230494e-02, 2.97427215e-02, 2.57049710e-01,
          2.44859159e-01, 1.96178257e-01, 1.63720697e-01, 0.,
          1.52051196e-01, 5.45192063e-02, 1.07286632e-01, 1.78370297e-01 ]
      - [ 2.44806558e-01, 2.05789164e-01, 1.12245701e-01, 1.28158391e-01,
          4.52938303e-02, 0., 8.42027217e-02, 1.05293445e-01,
          2.15082094e-01, 7.93031827e-02, 0., 0., 0., 0., 9.66662541e-02,
          1.15705110e-01, 0., 0., 0., 3.32358815e-02, 1.29983678e-01,
          1.38054416e-01, 2.52655178e-01, 2.44010642e-01, 7.32262135e-02,
          1.00012921e-01, 2.50410922e-02, 5.57918362e-02, 0.,
          1.09088100e-01, 1.51808336e-01, 2.35440865e-01, 1.52001679e-01,
          0., 0., 3.13659050e-02, 0., 0., 1.63616955e-01, 1.97192878e-01,
          0., 0., 0., 0., 0., 2.03055799e-01, 2.24664822e-01,
          2.03079060e-01, 1.34906143e-01, 1.48262590e-01, 1.27546668e-01,
          7.53215104e-02, 1.35893270e-01, 7.04125315e-02, 7.56547824e-02,
          8.24947134e-02, 2.38732338e-01, 2.32546806e-01, 1.40996158e-01,
          1.25684828e-01, 1.56342983e-01, 0., 0., 1.06349871e-01 ]
      - [ 4.24324945e-02, 2.45631680e-01, 1.77822322e-01, 2.31727719e-01,
          1.43600851e-01, 0., 7.75629058e-02, 6.11719117e-02,
          6.08984046e-02, 5.94764985e-02, 0., 1.74311414e-01,
          4.34859768e-02, 0., 0., 0., 0., 1.46625265e-02, 5.92920035e-02,
          2.79039621e-01, 2.36947522e-01, 1.38989195e-01, 7.79504627e-02,
          3.73021215e-02, 1.06197961e-01, 4.12666611e-02, 1.47895306e-01,
          2.73214996e-01, 0., 0., 0., 0., 1.08504377e-01, 5.14938645e-02,
          7.05610588e-02, 1.62578493e-01, 1.51006952e-02, 0., 0., 0., 0.,
          1.33849951e-02, 1.25311837e-01, 2.23304838e-01, 2.43188396e-01,
          9.63004529e-02, 9.87799913e-02, 1.20546907e-01, 9.37504247e-02,
          1.08593762e-01, 1.72721416e-01, 0., 5.58838807e-02,
          1.00970171e-01, 1.82184428e-01, 1.27853900e-01, 1.24935240e-01,
          1.93071887e-01, 2.19674647e-01, 1.21044166e-01, 9.30719152e-02,
          1.92287460e-01, 1.11006439e-01, 1.30703166e-01 ]
      - [ 1.67337477e-01, 1.53987244e-01, 2.13369712e-01, 0.,
          1.74890220e-01, 0., 1.70801088e-01, 1.05332874e-01, 0.,
          4.47213911e-02, 0., 8.40669125e-02, 1.01229221e-01,
          8.47281516e-02, 1.04967065e-01, 9.40527022e-02, 0.,
          8.48794654e-02, 4.87032421e-02, 2.56878823e-01, 2.48259202e-01,
          1.88151821e-01, 1.10219009e-01, 0., 5.74430749e-02,
          7.84804076e-02, 1.75564781e-01, 2.54077286e-01, 8.00759867e-02,
          1.05924651e-01, 0., 0., 9.35508832e-02, 1.04347929e-01,
          8.74985009e-02, 1.95565805e-01, 0., 0., 0., 0., 0., 0., 0., 0.,
          3.15163225e-01, 1.81316704e-01, 3.58540267e-02, 1.34536460e-01,
          1.19163141e-01, 0., 8.37042779e-02, 4.66157272e-02, 0.,
          3.86841670e-02, 2.66524166e-01, 1.67381242e-01, 1.33095205e-01,
          1.39488056e-01, 7.25292936e-02, 1.58064902e-01, 2.31686085e-01,
          1.00306705e-01, 7.82159716e-02, 0. ]
      - [ 1.28209218e-01, 1.21598884e-01, 3.13665628e-01, 0., 0., 0., 0.,
          0., 1.13205686e-01, 1.24611273e-01, 9.45530757e-02, 0., 0., 0.,
          1.65253684e-01, 1.67160302e-01, 0., 0., 2.40431771e-01, 0.,
          1.59496620e-01, 1.32404879e-01, 1.13617457e-01, 9.23086032e-02,
          0., 2.77008086e-01, 2.49590442e-01, 0., 0., 0., 0., 0.,
          1.24453016e-01, 3.40026245e-02, 1.12366982e-01, 1.96399450e-01,
          0., 0., 5.25934733e-02, 1.06931411e-01, 0., 0., 0., 0.,
          1.43962517e-01, 1.91072226e-01, 3.26312572e-01, 0.,
          9.88471732e-02, 0., 1.04547895e-01, 0., 6.76656738e-02,
          9.81296450e-02, 3.07607919e-01, 1.52410284e-01, 1.56857401e-01,
          1.03976868e-01, 1.42488763e-01, 1.75830796e-01, 1.54153943e-01,
          0., 8.77576321e-02, 0. ]
      - [ 2.36027613e-01, 3.10487181e-01, 0., 0., 0., 0., 0., 0.,
          1.36227503e-01, 1.30086526e-01, 0., 0., 0., 0., 0.,
          1.29151959e-02, 1.05220653e-01, 1.80414751e-01, 1.36230633e-01,
          9.59048271e-02, 9.84434336e-02, 1.30508721e-01, 8.37572441e-02,
          1.38142347e-01, 1.66179478e-01, 3.23527396e-01, 0., 0., 0., 0.,
          0., 0., 1.71540916e-01, 6.62573501e-02, 0., 1.17611088e-01, 0.,
          1.01592831e-01, 0., 1.10705562e-01, 1.81201175e-01, 0., 0., 0.,
          1.46280706e-01, 1.74216852e-01, 1.73276007e-01, 2.05516309e-01,
          1.40860528e-01, 1.66814417e-01, 1.45400167e-01, 0.,
          1.23287730e-01, 1.33821130e-01, 1.89194292e-01, 5.88172488e-02,
          2.10939348e-01, 1.96379557e-01, 1.67521924e-01, 1.78171694e-01,
          1.54778689e-01, 4.41366509e-02, 8.01842436e-02, 1.10953249e-01 ]
      - [ 1.18829831e-01, 6.69974536e-02, 2.38502607e-01, 2.19379008e-01,
          1.51818112e-01, 0., 0., 0., 0., 0., 0., 2.03063071e-01,
          1.50631905e-01, 1.61083698e-01, 2.76019312e-02, 7.90923983e-02,
          1.22883901e-01, 8.02666768e-02, 0., 1.21936575e-01,
          1.41644150e-01, 2.09559381e-01, 2.20344961e-01, 2.67368346e-01,
          3.29398066e-02, 0., 4.92996946e-02, 0., 0., 1.03680879e-01,
          1.63380519e-01, 1.25297248e-01, 1.36474445e-01, 1.95761353e-01,
          1.37426987e-01, 1.04172885e-01, 0., 8.04475769e-02, 0., 0.,
          8.72799084e-02, 8.86184573e-02, 1.14868686e-01, 1.50421128e-01,
          1.51310861e-01, 1.40332073e-01, 1.01241149e-01, 2.18689784e-01,
          1.22607462e-01, 1.09936655e-01, 0., 0., 0., 0., 1.29850075e-01,
          1.77653760e-01, 1.13464251e-01, 2.37771988e-01, 2.45468855e-01,
          1.07433394e-01, 9.47669074e-02, 0., 9.22751948e-02, 0. ]
      - [ 1.03080146e-01, 1.45528883e-01, 1.62676483e-01, 1.20847233e-01,
          2.34712526e-01, 0., 1.45270219e-02, 0., 0., 0., 0.,
          9.42844823e-02, 2.42194220e-01, 1.63408369e-01, 1.50795639e-01,
          0., 5.94852082e-02, 6.07563518e-02, 0., 6.00006096e-02,
          2.40272105e-01, 1.75878510e-01, 1.47917747e-01, 1.65461242e-01,
          4.58406955e-02, 6.69510141e-02, 1.55631900e-01, 8.37074146e-02,
          1.81758076e-01, 8.06380585e-02, 0., 0., 0., 1.16459690e-01,
          7.66003504e-02, 1.92160085e-01, 1.74385786e-01, 1.62084267e-01,
          8.52497146e-02, 0., 0., 0., 0., 1.86452687e-01, 1.89087525e-01,
          1.90721095e-01, 1.06683187e-01, 1.06390022e-01, 1.09594002e-01,
          1.44037232e-01, 1.60751238e-01, 1.87250733e-01, 0.,
          3.17101292e-02, 1.18692689e-01, 1.13369070e-01, 1.55318022e-01,
          1.12115502e-01, 2.30593562e-01, 2.19194800e-01, 5.24763875e-02,
          9.90295261e-02, 8.21970701e-02, 0. ]
      - [ 3.02677423e-01, 1.61000028e-01, 1.51004568e-01, 1.18781194e-01,
          1.37349501e-01, 0., 2.96257529e-02, 0., 0., 0., 0., 0.,
          3.81243713e-02, 0., 1.77345887e-01, 1.67599306e-01, 0.,
          3.12796645e-02, 0., 5.03144935e-02, 0., 1.93516612e-01,
          2.40352139e-01, 3.30537230e-01, 8.91241059e-02, 0., 0., 0.,
          4.57453020e-02, 0., 0., 0., 2.45215982e-01, 2.45578259e-01,
          1.31937981e-01, 0., 0., 0., 0., 0., 0., 4.31911834e-02, 0.,
          1.61327749e-01, 1.60472035e-01, 8.58253166e-02, 2.96772927e-01,
          4.26566675e-02, 1.11098766e-01, 0., 0., 0., 0., 3.52468640e-02,
          0., 1.78128123e-01, 3.71190548e-01, 1.97937608e-01,
          1.58136383e-01, 0., 0., 5.76339066e-02, 8.62701833e-02, 0. ]
      - [ 9.93450060e-02, 3.63810360e-02, 1.16505779e-01, 2.56674767e-01,
          1.80567980e-01, 0., 0., 0., 0., 1.05898812e-01, 1.48201421e-01,
          1.68002009e-01, 1.91621721e-01, 1.15285002e-01, 1.32489443e-01,
          1.01124957e-01, 1.71359286e-01, 1.18224211e-02, 0.,
          2.51467172e-02, 2.56417930e-01, 1.48458928e-01, 1.40598804e-01,
          1.25914425e-01, 1.23646438e-01, 1.23489559e-01, 0.,
          1.04056723e-01, 1.67087138e-01, 1.10007524e-01, 1.15840100e-01,
          0., 1.26840189e-01, 7.93177113e-02, 1.41941488e-01,
          1.39518037e-01, 2.10670426e-01, 4.33101654e-02, 7.43387118e-02,
          0., 0., 0., 1.44787177e-01, 1.35176405e-01, 1.41048416e-01,
          1.47476241e-01, 1.48635298e-01, 1.27430841e-01, 8.39854702e-02,
          1.58035517e-01, 1.54053792e-01, 1.29581466e-01, 7.14440793e-02,
          8.92763957e-02, 1.15201123e-01, 4.94029894e-02, 1.57060698e-01,
          1.86932623e-01, 2.41322845e-01, 1.90033242e-01, 3.02176028e-02,
          0., 0., 0. ]
      - [ 7.39658475e-02, 1.60084501e-01, 2.70327151e-01, 1.73054948e-01,
          0., 0., 0., 0., 3.75689641e-02, 9.99243334e-02, 1.01436608e-01,
          4.24310490e-02, 0., 0., 1.16048388e-01, 1.58701181e-01, 0.,
          2.11188514e-02, 0., 1.34735644e-01, 1.70930922e-01,
          2.23958150e-01, 1.92289159e-01, 1.33166716e-01, 1.67233676e-01,
          1.00537099e-01, 0., 0., 8.75978172e-02, 1.14727952e-01,
          7.29644969e-02, 1.70490425e-02, 1.89366221e-01, 2.13720202e-02,
          0., 5.42435944e-02, 1.51907176e-01, 1.07401885e-01,
          8.91857967e-02, 5.06556146e-02, 1.30615711e-01, 2.00369313e-01,
          0., 0., 1.84904382e-01, 2.36774698e-01, 1.38465434e-01,
          1.89977810e-01, 1.41888842e-01, 1.35893658e-01, 8.65959600e-02,
          1.33390516e-01, 4.08313647e-02, 0., 4.22054492e-02,
          1.87206060e-01, 1.63883194e-01, 2.11047545e-01, 2.17614189e-01,
          1.56616628e-01, 1.31435081e-01, 9.81545225e-02, 9.52212885e-02,
          1.33301750e-01 ]
      - [ 1.25746310e-01, 4.20307815e-01, 1.23118125e-01, 0., 0.,
          1.18633257e-02, 4.02645320e-02, 5.20694591e-02, 4.07163091e-02,
          0., 0., 0., 0., 0., 0., 0., 0., 8.42496306e-02, 1.54560998e-01,
          3.40976641e-02, 2.28933856e-01, 2.27122411e-01, 2.20121115e-01,
          7.44884610e-02, 2.11118668e-01, 2.42081955e-01, 0., 0., 0., 0.,
          0., 0., 2.37540737e-01, 2.11754702e-02, 0., 1.18273878e-02,
          9.05640051e-03, 0., 1.58529170e-02, 0., 0., 1.24360509e-02, 0.,
          8.34878627e-03, 2.14759693e-01, 2.78621912e-01, 1.69394404e-01,
          1.49642065e-01, 4.23584469e-02, 0., 2.66053546e-02,
          4.54986617e-02, 5.03650457e-02, 4.80102189e-02, 1.77335367e-01,
          2.00734273e-01, 1.29165143e-01, 1.50855437e-01, 2.27615774e-01,
          2.88703203e-01, 4.84590121e-02, 3.83039080e-02, 3.06057092e-02,
          0. ]
      - [ 2.29391187e-01, 3.53736848e-01, 5.62400818e-02, 0., 0.,
          1.01258438e-02, 0., 9.22760926e-03, 0., 0., 0., 0., 0., 0.,
          4.36346699e-03, 0., 0., 1.26181468e-01, 1.42255262e-01,
          1.63362429e-01, 0., 1.72786579e-01, 2.76288092e-01,
          2.29153767e-01, 0., 2.33286440e-01, 1.07442252e-01, 0., 0., 0.,
          0., 0., 3.42253707e-02, 0., 0., 0., 0., 0., 0., 5.25358021e-02,
          0., 6.07171506e-02, 0., 0., 0., 1.59496218e-01, 2.87206739e-01,
          3.24159294e-01, 8.01334456e-02, 6.88632354e-02, 0.,
          1.04898974e-01, 0., 6.34203553e-02, 9.78286043e-02,
          2.65079558e-01, 2.15409234e-01, 2.52083749e-01, 1.64828598e-01,
          1.87971845e-01, 1.60281867e-01, 7.06826076e-02, 3.97458635e-02,
          0. ]
      - [ 2.24785864e-01, 1.00147814e-01, 6.44721389e-02, 5.37821576e-02,
          1.14559911e-01, 6.49350062e-02, 1.16009071e-01, 1.70060217e-01,
          1.23176172e-01, 0., 0., 0., 0., 0., 1.96409523e-02,
          8.69726837e-02, 1.31567746e-01, 1.12993263e-01, 6.35364503e-02,
          8.81179646e-02, 8.19002017e-02, 1.15027636e-01, 1.19406573e-01,
          3.45138043e-01, 6.74263155e-03, 0., 0., 0., 0., 0.,
          1.46640629e-01, 2.77613759e-01, 3.79946753e-02, 0., 0.,
          1.90670893e-01, 9.46718454e-02, 9.80875790e-02, 0.,
          1.15702316e-01, 1.59982279e-01, 6.08770549e-02, 0.,
          1.88037649e-01, 1.59773901e-01, 1.67864144e-01, 1.40761405e-01,
          2.18256876e-01, 0., 1.15479380e-01, 5.81000410e-02,
          9.13398638e-02, 1.55220926e-01, 0., 1.84315428e-01,
          2.44779304e-01, 7.89579228e-02, 5.23675904e-02, 6.97461888e-02,
          2.40942180e-01, 1.09408915e-01, 1.78217188e-01, 1.80666521e-01,
          9.40671414e-02 ]
      - [ 1.57923460e-01, 1.69087097e-01, 2.52554983e-01, 1.37311175e-01,
          0., 9.29138213e-02, 1.01361983e-01, 0., 1.23590253e-01,
          9.65056717e-02, 1.48691431e-01, 1.22870587e-01, 0., 0.,
          1.22990713e-01, 6.90341443e-02, 1.84625071e-02, 1.85500726e-01,
          1.52303159e-01, 1.42013490e-01, 1.65738389e-01, 2.33615190e-01,
          1.01176232e-01, 1.09422937e-01, 5.13948314e-02, 1.44050553e-01,
          2.26904124e-01, 1.48900509e-01, 1.32435784e-01, 0.,
          8.95970762e-02, 3.29882130e-02, 1.87726498e-01, 7.35653192e-02,
          0., 1.04935087e-01, 9.85165164e-02, 5.68049662e-02,
          5.92555702e-02, 7.05651864e-02, 5.63273206e-02, 0.,
          1.40853643e-01, 0., 0., 2.11182669e-01, 2.16596887e-01,
          1.62407398e-01, 7.29570091e-02, 8.05465207e-02, 3.19780000e-02,
          8.54890049e-02, 6.52910322e-02, 8.05300623e-02, 1.86830804e-01,
          1.76455453e-01, 2.05807194e-01, 2.11028188e-01, 5.77381589e-02,
          1.22249834e-01, 0., 1.43411413e-01, 1.43204033e-01, 0. ]
      - [ 6.21545427e-02, 1.03955768e-01, 1.48970231e-01, 2.48557240e-01,
          0., 0., 0., 5.99152893e-02, 4.91364039e-02, 7.16968402e-02,
          6.91644028e-02, 1.85935676e-01, 1.17491893e-01, 1.46019787e-01,
          3.50273773e-02, 2.20674589e-01, 0., 0., 5.17835729e-02,
          1.60614148e-01, 2.50198036e-01, 1.85222343e-01, 1.96230859e-01,
          3.85960676e-02, 1.15892351e-01, 7.36755505e-02, 1.50527373e-01,
          2.21225426e-01, 1.37759298e-01, 1.06539287e-01, 0., 0.,
          1.08722351e-01, 7.70119280e-02, 7.91955143e-02, 8.67010877e-02,
          1.62390947e-01, 1.35071903e-01, 9.35482234e-02, 6.56378716e-02,
          0., 0., 3.41428220e-02, 2.07800604e-02, 2.15751633e-01,
          1.13323450e-01, 1.40392482e-01, 1.02137305e-01, 8.70027989e-02,
          8.81735086e-02, 1.14124268e-01, 1.72993749e-01, 0., 0.,
          1.71950281e-01, 1.83406577e-01, 1.47023097e-01, 1.45328134e-01,
          1.48288116e-01, 2.13272169e-01, 3.27254236e-02, 8.08439478e-02,
          2.10679516e-01, 1.24858715e-01 ]
      - [ 2.06074953e-01, 1.90469205e-01, 1.94569200e-01, 2.07615823e-01,
          1.31884247e-01, 7.53659308e-02, 0., 0., 6.83730915e-02, 0.,
          6.79585785e-02, 8.25898871e-02, 1.21996112e-01, 0., 0., 0., 0.,
          0., 0., 0., 2.71867096e-01, 2.15462521e-01, 1.58305138e-01,
          9.73935351e-02, 8.25629011e-02, 5.53382374e-02, 1.06700465e-01,
          2.44013429e-01, 9.02333483e-02, 7.89564326e-02, 5.88037781e-02,
          0., 1.47122562e-01, 7.36271888e-02, 0., 1.50677785e-01,
          1.23669483e-01, 0., 8.46417770e-02, 0., 0., 0., 0.,
          1.85375258e-01, 2.68411845e-01, 1.76002011e-01, 1.46894217e-01,
          1.59286618e-01, 6.29384518e-02, 0., 8.61876011e-02,
          9.89215076e-02, 1.40743688e-01, 1.04159556e-01, 2.28784010e-01,
          1.31339148e-01, 1.33829474e-01, 6.60973117e-02, 1.53451338e-01,
          2.57922351e-01, 1.33625895e-01, 9.55661312e-02, 7.83929899e-02,
          9.60516557e-02 ]
      - [ 5.97613789e-02, 8.50116462e-02, 1.12773433e-01, 1.96288854e-01,
          1.83088422e-01, 0., 0., 0., 0., 0., 0., 2.17836380e-01,
          1.44193038e-01, 1.00120351e-01, 7.49391541e-02, 1.31628379e-01,
          1.59216985e-01, 7.11752400e-02, 1.53293118e-01, 2.23328084e-01,
          9.98629183e-02, 9.96233597e-02, 8.66059586e-02, 1.35291442e-01,
          9.56758410e-02, 2.75350660e-01, 0., 0., 6.54090717e-02,
          1.16763413e-01, 9.50826257e-02, 7.85725191e-02, 1.77377954e-01,
          9.67525318e-02, 1.57751456e-01, 1.49218589e-01, 1.60143793e-01,
          0., 0., 0., 0., 0., 0., 0., 1.76718101e-01, 2.03068510e-01,
          1.21393003e-01, 1.84117869e-01, 1.15384631e-01, 9.36444104e-02,
          4.47935872e-02, 0., 1.54393792e-01, 1.18612267e-01,
          2.25460246e-01, 1.84611887e-01, 1.76117122e-01, 1.68420151e-01,
          1.09218664e-01, 2.26440310e-01, 1.62963957e-01, 6.96819127e-02,
          0., 0. ]
      - [ 1.48073018e-01, 1.43547058e-01, 1.12520561e-01, 3.55815291e-02,
          1.23158164e-01, 1.23051174e-01, 1.64327413e-01, 1.81237191e-01,
          0., 0., 0., 0., 0., 0., 9.52515285e-03, 1.49826899e-01,
          2.95644403e-01, 1.42403990e-01, 1.31994829e-01, 7.50969425e-02,
          1.31775916e-01, 5.82532547e-02, 1.16905004e-01, 1.53921157e-01,
          2.64610976e-01, 1.01119019e-01, 0., 0., 0., 0., 0.,
          6.78433403e-02, 3.59998606e-02, 0., 0., 0., 1.99476033e-01,
          1.59952730e-01, 0., 0., 0., 0., 0., 0., 2.95703739e-01,
          1.79708272e-01, 2.15268448e-01, 0., 0., 9.09277424e-02,
          1.18387640e-01, 1.72284156e-01, 0., 0., 9.30825621e-02,
          1.38068721e-01, 3.13182920e-01, 1.35965601e-01, 1.32946774e-01,
          9.19106454e-02, 9.89244804e-02, 1.79591745e-01, 2.24505901e-01,
          9.77609754e-02 ]
      - [ 8.54693875e-02, 2.05776498e-01, 1.90015286e-01, 1.33777246e-01,
          1.34782061e-01, 0., 0., 0., 0., 0., 0., 7.78888613e-02,
          1.85581952e-01, 1.09838806e-01, 8.00497383e-02, 3.45101357e-02,
          5.91272824e-02, 1.29117087e-01, 1.55908719e-01, 0.,
          1.86229542e-01, 2.06784651e-01, 9.39787626e-02, 1.43027917e-01,
          1.05427220e-01, 1.82847485e-01, 2.31921107e-01, 0.,
          9.11495239e-02, 9.57481489e-02, 1.31787091e-01, 0.,
          1.53706893e-01, 1.94830358e-01, 0., 3.36746611e-02, 0.,
          1.41169697e-01, 9.95649695e-02, 1.20962478e-01, 0.,
          2.16801077e-01, 0., 0., 1.41401827e-01, 1.80832833e-01,
          1.59596860e-01, 1.77144632e-01, 0., 2.21195202e-02,
          2.07082152e-01, 1.89863577e-01, 1.62482917e-01, 5.75778969e-02,
          8.67231041e-02, 4.26867753e-02, 1.17795736e-01, 1.17222160e-01,
          2.63895392e-01, 1.98308557e-01, 1.21746309e-01, 0., 0., 0. ]
      - [ 1.59581646e-01, 2.13131249e-01, 2.68582612e-01, 1.28612131e-01,
          8.92412215e-02, 9.10453424e-02, 1.09889358e-01, 0.,
          8.27808380e-02, 0., 0., 8.59960020e-02, 6.31972551e-02, 0.,
          4.68010232e-02, 1.93990827e-01, 0., 1.39793262e-01,
          1.25664100e-01, 1.25008985e-01, 0., 1.32595181e-01,
          2.29548156e-01, 2.73216844e-01, 1.98383704e-01, 4.93677221e-02,
          0., 0., 0., 8.19913670e-02, 9.31343809e-02, 8.84044543e-02,
          2.58329242e-01, 8.29375908e-02, 6.84643313e-02, 0., 0., 0., 0.,
          0., 0., 0., 0., 0., 1.40638486e-01, 2.75737017e-01,
          2.40621924e-01, 1.12370931e-01, 0., 0., 0., 0., 7.27883279e-02,
          0., 1.96400210e-01, 1.69580564e-01, 1.74211994e-01,
          2.82682568e-01, 1.72056496e-01, 1.60747394e-01, 0.,
          7.25852028e-02, 0., 7.00993463e-02 ]
      - [ 8.58163908e-02, 1.20825402e-01, 5.49729355e-02, 8.66712332e-02,
          1.59544230e-01, 2.53331691e-01, 0., 0., 0., 0., 0., 0.,
          3.85857522e-02, 3.21171105e-01, 7.88701400e-02, 1.69912070e-01,
          0., 0., 0., 0., 0., 2.95709670e-01, 1.85871542e-01,
          2.01503664e-01, 1.14368550e-01, 0., 0., 0., 0., 1.67315289e-01,
          1.16461873e-01, 1.59202784e-01, 1.64273083e-01, 3.42534095e-01,
          0., 0., 0., 0., 0., 0., 8.26850533e-02, 1.87680751e-01, 0.,
          1.10999763e-01, 6.62514344e-02, 1.02438085e-01, 0.,
          8.82562995e-02, 1.99485138e-01, 1.86025247e-01, 0., 0., 0., 0.,
          0., 6.05910495e-02, 2.14932278e-01, 3.84052873e-01, 0., 0., 0.,
          0., 4.92828563e-02, 0. ]
      - [ 1.53674468e-01, 2.06216007e-01, 1.91871077e-01, 1.22631475e-01,
          0., 1.51467443e-01, 0., 0., 1.01688892e-01, 3.95709723e-02, 0.,
          0., 3.86143625e-02, 1.01617984e-01, 1.52505472e-01,
          1.24517329e-01, 0., 0., 1.00098727e-02, 2.24031359e-01,
          1.83378607e-01, 2.00186655e-01, 1.59066200e-01, 1.50733709e-01,
          1.61092192e-01, 1.23992413e-01, 0., 0., 8.72200429e-02,
          6.08591288e-02, 0., 0., 1.95451930e-01, 2.05930263e-01,
          8.35141614e-02, 4.88836244e-02, 7.29058683e-02, 0.,
          8.56051296e-02, 1.08074933e-01, 9.27341878e-02, 0.,
          1.33562237e-01, 1.29920557e-01, 2.65959531e-01, 1.14403501e-01,
          9.26853791e-02, 9.10491720e-02, 1.28763139e-01, 9.90679488e-02,
          1.30326465e-01, 1.50438413e-01, 4.43381704e-02, 1.02513522e-01,
          0., 1.41922504e-01, 8.44821334e-02, 2.44715184e-01,
          2.43973002e-01, 1.81494549e-01, 1.87953174e-01, 1.14817403e-01,
          8.35762694e-02, 0. ]
      - [ 1.75371557e-01, 3.05657834e-01, 1.79734528e-01, 0., 0., 0., 0.,
          0., 8.38871971e-02, 1.70155898e-01, 3.68886963e-02, 0., 0., 0.,
          0., 0., 0., 0., 5.59642427e-02, 1.32066414e-01, 1.33367926e-01,
          1.40200734e-01, 1.57330915e-01, 2.33699083e-01, 1.64173663e-01,
          7.20935613e-02, 8.33113939e-02, 1.12191215e-01, 0.,
          1.22236505e-01, 1.33731037e-01, 0., 1.93274498e-01,
          2.96657737e-02, 0., 1.25104114e-01, 8.36379603e-02,
          9.23651457e-02, 7.25913271e-02, 8.45548064e-02, 2.44524822e-01,
          5.78505136e-02, 0., 0., 2.06779972e-01, 1.55066878e-01,
          1.74688280e-01, 2.15124294e-01, 9.39871073e-02, 1.22021265e-01,
          1.49062812e-01, 1.71406478e-01, 2.83838939e-02, 0.,
          1.55733734e-01, 1.60264209e-01, 1.31540954e-01, 1.69580430e-01,
          2.23643273e-01, 2.09661067e-01, 0., 0., 4.14208025e-02,
          1.66998118e-01 ]
      - [ 1.27569169e-01, 1.58901975e-01, 1.70505986e-01, 2.29475692e-01,
          1.68052405e-01, 0., 0., 8.65713805e-02, 8.35613385e-02,
          9.76167917e-02, 1.35062501e-01, 8.30610916e-02, 9.53561738e-02,
          1.64375246e-01, 1.30726993e-01, 7.08905682e-02, 0.,
          1.41693354e-01, 1.09330356e-01, 1.79933712e-01, 2.53671378e-01,
          1.22032039e-01, 1.07409768e-01, 1.06715970e-01, 2.03228053e-02,
          2.95527637e-01, 6.06944226e-02, 0., 0., 0., 1.13173053e-01,
          8.96731541e-02, 1.92748740e-01, 1.58416614e-01, 8.60577747e-02,
          0., 0., 0., 0., 0., 5.99267446e-02, 0., 0., 0., 5.24338894e-02,
          2.14557901e-01, 2.05851585e-01, 2.23817259e-01, 0., 0.,
          8.57050940e-02, 0., 0., 0., 6.23130724e-02, 2.71992177e-01,
          2.26949289e-01, 2.15394691e-01, 1.53232157e-01, 1.19949266e-01,
          1.56600416e-01, 0., 4.76933233e-02, 0. ]
      - [ 3.30023915e-02, 2.59806722e-01, 2.14981407e-01, 1.35301694e-01,
          1.56064883e-01, 1.65517285e-01, 4.99825999e-02, 0., 0., 0.,
          1.71618044e-01, 1.72628120e-01, 0., 0., 0., 0., 6.08345084e-02,
          7.99975097e-02, 3.39828469e-02, 3.08717638e-01, 1.34696811e-01,
          1.21273026e-01, 8.71596709e-02, 6.00120723e-02, 1.49388343e-01,
          1.70947850e-01, 0., 2.58590907e-01, 7.52804130e-02,
          9.66241136e-02, 5.42972535e-02, 0., 2.15701774e-01,
          1.72267288e-01, 0., 0., 0., 0., 0., 0., 0., 5.13779484e-02,
          2.31412515e-01, 9.26945135e-02, 1.23992920e-01, 5.84107302e-02,
          1.38419092e-01, 1.01108909e-01, 1.59387127e-01, 2.65821785e-01,
          5.88199347e-02, 0., 6.83814883e-02, 0., 0., 0., 2.42782563e-01,
          3.27256054e-01, 3.21926661e-02, 5.95149845e-02, 4.68810536e-02,
          0., 0., 1.54663082e-02 ]
      - [ 1.78486750e-01, 2.10661009e-01, 2.12172136e-01, 2.14821592e-01,
          0., 0., 0., 0., 0., 1.59846425e-01, 1.35321647e-01,
          1.30311996e-01, 0., 0., 5.69936866e-03, 0., 4.81311418e-02, 0.,
          1.46694690e-01, 1.08148649e-01, 1.24559000e-01, 1.72012225e-01,
          1.22204922e-01, 2.88216919e-01, 6.03323393e-02, 3.52918580e-02,
          0., 0., 8.36347193e-02, 1.18161902e-01, 1.24573283e-01,
          1.02763422e-01, 1.20770447e-01, 3.11097242e-02, 4.75192666e-02,
          1.30312249e-01, 1.03457376e-01, 1.13321222e-01, 9.79504138e-02,
          5.51873296e-02, 1.90529600e-01, 7.69295618e-02, 3.10704596e-02,
          0., 2.23712385e-01, 1.95495278e-01, 1.49251238e-01,
          2.16634393e-01, 1.22922651e-01, 1.23464495e-01, 1.58796161e-01,
          0., 0., 0., 3.37563716e-02, 2.33538941e-01, 1.52972609e-01,
          1.78882048e-01, 1.70268625e-01, 2.15870723e-01, 9.01149306e-03,
          0., 0., 1.64942890e-01 ]
      - [ 1.82804570e-01, 3.19338977e-01, 1.31733194e-01, 1.22854620e-01,
          0., 0., 0., 0., 0., 6.84423000e-02, 1.82396531e-01,
          1.42596150e-02, 0., 0., 0., 0., 8.55127200e-02, 0.,
          5.25609776e-02, 1.31570593e-01, 1.30931914e-01, 1.39364600e-01,
          2.04708859e-01, 2.83432662e-01, 0., 6.40938384e-03,
          2.49194149e-02, 1.31426051e-01, 7.86680654e-02, 9.96345058e-02,
          0., 1.12604626e-01, 1.17487215e-01, 0., 0., 0., 1.43172055e-01,
          1.37081146e-01, 9.44229960e-02, 1.23548664e-01, 0.,
          1.74873322e-01, 1.08910285e-01, 0., 1.60830334e-01,
          2.35899195e-01, 1.54940486e-01, 2.20356017e-01, 7.18276054e-02,
          1.02983937e-01, 1.39152199e-01, 1.19579360e-01, 6.12226799e-02,
          3.32168974e-02, 3.60426144e-03, 1.79996148e-01, 1.97846577e-01,
          1.63147673e-01, 2.22184718e-01, 1.89316407e-01, 0.,
          3.50450240e-02, 6.38350546e-02, 2.10538015e-01 ]
      - [ 6.81855902e-02, 6.21207878e-02, 1.13338687e-01, 3.63846034e-01,
          1.45586487e-02, 0., 0., 0., 0., 1.93568002e-02, 3.93048190e-02,
          2.43580714e-01, 2.66212344e-01, 9.64931250e-02, 8.78659561e-02,
          9.28772166e-02, 0., 1.46507978e-01, 0., 0., 2.95704752e-01,
          1.31638497e-01, 9.98281166e-02, 1.50527582e-01, 1.08486995e-01,
          1.71533778e-01, 0., 1.15160219e-01, 1.35540232e-01,
          1.40453294e-01, 5.20327985e-02, 9.77741927e-02, 1.94351450e-01,
          3.24484169e-01, 0., 0., 0., 2.77517419e-02, 0., 0.,
          1.40472367e-01, 1.07265644e-01, 0., 0., 4.56191674e-02, 0., 0.,
          0., 1.49856389e-01, 2.14601770e-01, 0., 0., 0., 0., 0., 0.,
          2.69674063e-01, 3.20903599e-01, 5.68040982e-02, 0., 0., 0., 0.,
          0. ]
      - [ 1.16361953e-01, 1.44593582e-01, 1.73586622e-01, 1.98957115e-01,
          0., 4.18189168e-02, 0., 0., 0., 0., 1.35787472e-01,
          9.42695141e-02, 1.46517560e-01, 1.57788977e-01, 1.20016895e-01,
          1.27585739e-01, 0., 1.28266528e-01, 0., 6.52481616e-02,
          1.59979016e-01, 1.68551996e-01, 2.52321601e-01, 1.27936348e-01,
          1.77837864e-01, 2.78626159e-02, 0., 1.11549437e-01,
          1.63687542e-01, 1.41777113e-01, 0., 1.06730349e-01,
          9.12603512e-02, 2.17391104e-02, 1.15797497e-01, 1.36790365e-01,
          1.92027122e-01, 7.82078356e-02, 1.42886639e-01, 8.69693682e-02,
          1.20379098e-01, 6.03364781e-02, 0., 0., 2.02846587e-01,
          1.52854472e-01, 1.94420949e-01, 1.33849651e-01, 1.24484263e-01,
          1.28374219e-01, 1.69439003e-01, 1.30674526e-01, 0., 0.,
          3.73330489e-02, 1.77376032e-01, 1.83130115e-01, 1.66922167e-01,
          1.99870840e-01, 1.87077880e-01, 0., 4.68115024e-02,
          1.30769670e-01, 1.23816013e-01 ]
      - [ 1.33851916e-01, 4.00172733e-02, 1.02737792e-01, 2.21829414e-01,
          1.16069868e-01, 0., 0., 0., 5.20613194e-02, 0., 0., 0., 0.,
          2.41407845e-02, 2.23724663e-01, 1.08303353e-01, 1.75252274e-01,
          0., 1.35016069e-01, 0., 0., 1.02308840e-01, 2.66616702e-01,
          2.90321797e-01, 1.65985718e-01, 1.07050231e-02, 0., 0., 0., 0.,
          4.54145856e-02, 2.19994888e-01, 1.38094351e-01, 1.51297539e-01,
          1.06871903e-01, 1.19140059e-01, 1.24507144e-01, 0.,
          7.09840804e-02, 0., 0., 0., 8.58726203e-02, 2.22657442e-01,
          1.44967720e-01, 1.66828319e-01, 1.73591778e-01, 1.49779096e-01,
          0., 0., 8.34158584e-02, 6.26457259e-02, 0., 4.49786633e-02,
          3.29075307e-01, 5.25239110e-02, 1.11495346e-01, 4.71032448e-02,
          2.47028902e-01, 1.51895806e-01, 1.63907662e-01, 1.84158489e-01,
          1.38923869e-01, 0. ]
      - [ 1.98313653e-01, 1.67346641e-01, 1.52144238e-01, 1.26184300e-01,
          0., 0., 0., 1.10922135e-01, 1.41512752e-01, 1.56942800e-01,
          1.51602894e-01, 0., 0., 8.80297646e-02, 9.64365304e-02,
          8.10048580e-02, 2.34301642e-01, 0., 3.08296252e-02,
          1.28570989e-01, 1.48076400e-01, 1.43675193e-01, 1.33680314e-01,
          1.67481482e-01, 2.37266660e-01, 5.98618761e-02, 0.,
          1.28254563e-01, 8.03202316e-02, 9.22016501e-02, 8.30325112e-02,
          1.18907876e-01, 1.24585234e-01, 1.38409674e-01, 1.48268580e-01,
          2.17395768e-01, 4.62971330e-02, 5.05549274e-02, 0., 0., 0.,
          2.79233437e-02, 1.58506840e-01, 1.74228519e-01, 1.25046387e-01,
          1.21441521e-01, 1.51440218e-01, 4.45406213e-02, 1.17232665e-01,
          0., 1.05917849e-01, 8.46214369e-02, 1.37134686e-01,
          2.48719618e-01, 1.05978407e-01, 0., 2.04850137e-01,
          4.36451808e-02, 1.77085876e-01, 1.69189110e-01, 2.16302976e-01,
          1.48215756e-01, 6.70696981e-03, 0. ]
      - [ 7.68566057e-02, 9.12325829e-02, 1.48906469e-01, 3.24365079e-01,
          0., 0., 0., 0., 0., 0., 3.27521041e-02, 3.09948146e-01,
          1.35697946e-01, 7.48664066e-02, 1.14372469e-01, 0.,
          1.92719504e-01, 8.41130018e-02, 0., 8.38784948e-02,
          2.30291247e-01, 1.45950153e-01, 1.70261398e-01, 6.36082292e-02,
          2.54956633e-01, 4.77508232e-02, 0., 0., 1.33996412e-01,
          1.00821756e-01, 6.17034808e-02, 1.32073715e-01, 2.26789311e-01,
          3.10531467e-01, 0., 0., 0., 0., 0., 7.89368674e-02,
          6.58281893e-02, 0., 9.84223932e-02, 0., 0., 9.36346203e-02, 0.,
          1.22543544e-01, 2.31134102e-01, 0., 0., 0., 0., 0., 0.,
          3.68691757e-02, 3.14987808e-01, 3.20887595e-01, 0., 0., 0., 0.,
          0., 0. ]
      - [ 6.68116733e-02, 1.20856114e-01, 1.78495839e-01, 1.92657456e-01,
          1.56089067e-01, 0., 0., 0., 0., 0., 0., 1.54316127e-01,
          1.89793706e-01, 1.33502841e-01, 6.14157394e-02, 8.83985013e-02,
          1.01614960e-01, 5.28790914e-02, 1.03602625e-01, 1.23917058e-01,
          9.37817320e-02, 1.90262690e-01, 2.22691521e-01, 1.43342927e-01,
          1.82796761e-01, 8.63282830e-02, 3.75847220e-02, 0.,
          6.45625815e-02, 1.56760782e-01, 1.17325738e-01, 1.02858342e-01,
          1.41066268e-01, 7.91985467e-02, 1.46073595e-01, 7.31707141e-02,
          2.22137198e-01, 1.30783901e-01, 0., 0., 0., 0., 0., 0.,
          2.56460786e-01, 2.05027342e-01, 1.23127848e-01, 1.44983068e-01,
          0., 1.07957326e-01, 0., 1.47288248e-01, 1.38176307e-01, 0.,
          7.34908581e-02, 2.40088850e-01, 1.63646549e-01, 1.56455055e-01,
          1.67931452e-01, 1.79102421e-01, 1.78444833e-01, 0.,
          1.05445549e-01, 1.23884536e-01 ]
      - [ 1.44585386e-01, 1.64516464e-01, 1.94543868e-01, 1.04539514e-01,
          0., 0., 0., 0., 8.05967823e-02, 0., 0., 0., 0., 2.89219953e-02,
          1.27941161e-01, 2.47073278e-01, 0., 5.66528253e-02, 0.,
          1.59542516e-01, 2.35207677e-01, 2.02904940e-01, 1.81564614e-01,
          1.40514642e-01, 1.32768348e-01, 2.18768030e-01, 1.01103306e-01,
          1.13177314e-01, 0., 0., 0., 0., 1.48598462e-01, 1.66973710e-01,
          1.37578234e-01, 0., 7.94208497e-02, 9.48552936e-02,
          8.73191506e-02, 0., 1.25221476e-01, 1.01066515e-01,
          1.53356612e-01, 0., 9.65328813e-02, 1.99526131e-01,
          2.01929748e-01, 1.35598630e-01, 1.67159498e-01, 0.,
          1.54762119e-01, 0., 0., 0., 1.66335236e-02, 2.50795782e-01,
          2.24091768e-01, 1.68867350e-01, 1.61630645e-01, 1.59434691e-01,
          1.75874919e-01, 9.69171748e-02, 8.88883621e-02, 9.50061977e-02 ]
      - [ 0., 1.19663849e-01, 1.50125399e-01, 3.14022124e-01,
          8.61054435e-02, 8.25565755e-02, 5.21754399e-02, 0.,
          5.52372746e-02, 6.74458519e-02, 0., 3.07465822e-01,
          1.31471828e-01, 1.40072405e-01, 0., 1.17999300e-01, 0.,
          1.57133058e-01, 5.98166995e-02, 2.13225588e-01, 1.51091129e-01,
          2.25557953e-01, 1.09605685e-01, 1.54618129e-01, 0.,
          1.60029083e-01, 0., 1.37097985e-01, 1.55966267e-01, 0.,
          1.08084217e-01, 7.10530877e-02, 6.25842437e-02, 3.02025080e-01,
          4.17805724e-02, 0., 0., 0., 0., 2.41894983e-02, 0.,
          1.35501325e-02, 1.59976825e-01, 7.62663707e-02, 1.36933386e-01,
          1.12166800e-01, 1.12354279e-01, 1.05840586e-01, 0.,
          2.42134631e-01, 0., 0., 0., 0., 0., 0., 9.86771658e-03,
          4.08214658e-01, 1.27330363e-01, 0., 0., 0., 0., 0. ]
      - [ 5.06534912e-02, 9.40683708e-02, 1.23780563e-01, 2.14525744e-01,
          2.12559208e-01, 1.76892970e-02, 0., 0., 0., 5.78787597e-03,
          1.42747881e-02, 2.43569523e-01, 1.83379486e-01, 1.11693457e-01,
          9.11970660e-02, 4.95770127e-02, 1.29102632e-01, 1.03952937e-01,
          1.31066650e-01, 5.00043035e-02, 1.87747166e-01, 2.07764059e-01,
          1.96955189e-01, 2.24843293e-01, 1.19216768e-02, 0., 0., 0.,
          8.67913365e-02, 9.73607451e-02, 9.31595415e-02, 1.95244253e-01,
          1.16653211e-01, 1.93919450e-01, 2.66915023e-01, 0.,
          5.49564287e-02, 4.86072563e-02, 4.49103303e-02, 4.71526086e-02,
          0., 0., 7.25802705e-02, 1.94430709e-01, 1.66532710e-01,
          1.38135254e-01, 1.12907417e-01, 1.51118055e-01, 0., 0.,
          1.85998037e-01, 0., 0., 0., 0., 0., 0., 3.38861465e-01,
          2.67457485e-01, 2.84037851e-02, 0., 0., 8.44233781e-02, 0. ]
      - [ 1.94583058e-01, 1.11988463e-01, 1.30523622e-01, 1.02965370e-01,
          1.52577683e-01, 1.45656884e-01, 9.34177563e-02, 0., 0.,
          8.56028274e-02, 0., 0., 7.19003007e-02, 0., 1.80832922e-01,
          2.66629368e-01, 0., 0., 0., 1.70587897e-01, 2.04792216e-01,
          1.49326161e-01, 1.86474487e-01, 1.67808190e-01, 1.30039990e-01,
          1.54617608e-01, 1.93974078e-01, 1.01507455e-01, 0., 0., 0., 0.,
          2.38318697e-01, 1.56366080e-01, 0., 9.96083915e-02,
          7.20149204e-02, 7.57157728e-02, 0., 9.61759835e-02,
          1.16266765e-01, 6.78010061e-02, 8.64268467e-02, 1.44432366e-01,
          1.42083332e-01, 1.27493531e-01, 1.43435359e-01, 2.03017503e-01,
          1.28482804e-01, 1.51014104e-01, 0., 0., 0., 0., 6.75418451e-02,
          2.76811302e-01, 1.69866085e-01, 1.43688634e-01, 1.96496353e-01,
          1.44208208e-01, 9.52558741e-02, 0., 1.13723502e-01, 0. ]
      - [ 2.29705840e-01, 2.27638021e-01, 9.14499685e-02, 1.35863885e-01,
          1.38914987e-01, 0., 7.87538141e-02, 0., 6.80222288e-02, 0.,
          5.79911955e-02, 4.63801511e-02, 1.04385413e-01, 9.13028270e-02,
          9.02528316e-02, 6.76360503e-02, 0., 0., 0., 1.95308998e-01,
          1.95589826e-01, 2.44110584e-01, 1.70305520e-01, 8.29845071e-02,
          1.12208337e-01, 1.13085553e-01, 1.72738418e-01, 2.07439393e-01,
          1.35617852e-01, 0., 0., 0., 1.01065621e-01, 1.06320001e-01,
          7.96755254e-02, 0., 7.38344491e-02, 1.67856544e-01,
          1.03248551e-01, 0., 0., 5.52738272e-02, 0., 0., 1.64457068e-01,
          2.96002001e-01, 1.21780522e-01, 1.53715461e-01, 8.21860284e-02,
          0., 7.75412768e-02, 1.14213414e-01, 0., 9.55319703e-02,
          2.02952594e-01, 1.38363346e-01, 2.30138093e-01, 1.82964876e-01,
          1.03567399e-01, 1.26873896e-01, 1.44827560e-01, 1.61321342e-01,
          1.16572022e-01, 1.22567602e-01 ]
      - [ 2.50262320e-01, 2.78413206e-01, 0., 0., 0., 0., 0., 0.,
          1.80690840e-01, 9.00888816e-02, 0., 0., 0., 0., 0.,
          1.21900272e-02, 6.71193078e-02, 1.84865847e-01, 1.52133927e-01,
          9.68889594e-02, 1.99108031e-02, 8.88833255e-02, 7.75519982e-02,
          5.96491992e-02, 1.58942312e-01, 3.40818197e-01, 0., 0., 0., 0.,
          0., 0., 2.26059884e-01, 2.21403949e-02, 9.43749100e-02,
          1.11865908e-01, 0., 7.68419132e-02, 9.28667039e-02,
          1.15960494e-01, 1.46740779e-01, 0., 0., 0., 0., 2.50596344e-01,
          1.90342635e-01, 1.50978968e-01, 0., 0., 1.76331997e-01,
          2.17954084e-01, 1.44351348e-01, 1.45027280e-01, 1.69701114e-01,
          1.48934200e-01, 7.76272789e-02, 2.08779752e-01, 2.42284566e-01,
          1.62014022e-01, 1.81884229e-01, 0., 4.57556583e-02,
          5.39050102e-02 ]
      - [ 2.03461468e-01, 7.36854300e-02, 1.23296298e-01, 2.09676996e-01,
          1.76239729e-01, 0., 0., 0., 1.30397171e-01, 1.58557057e-01,
          1.17891029e-01, 1.09664686e-01, 0., 0., 2.09332854e-02,
          1.76578626e-01, 1.39442652e-01, 7.25150248e-03, 1.41368685e-02,
          2.33696982e-01, 1.40019923e-01, 1.32155359e-01, 1.28702700e-01,
          2.17460290e-01, 1.54658854e-01, 0., 3.46021876e-02,
          1.25905633e-01, 1.29904583e-01, 9.61655527e-02, 1.39184162e-01,
          1.39007404e-01, 2.05403715e-01, 1.78218648e-01, 0., 0., 0., 0.,
          0., 6.49762005e-02, 1.66188031e-01, 2.11697504e-01,
          6.23661727e-02, 7.50342011e-02, 8.37760195e-02, 9.92007777e-02,
          1.20915659e-01, 1.62367299e-01, 2.32984483e-01, 2.09808365e-01,
          0., 0., 0., 0., 0., 0., 1.84212297e-01, 3.39171708e-01,
          1.02412529e-01, 3.42902392e-02, 0., 0., 0., 7.30039701e-02 ]
      - [ 1.04599163e-01, 9.88096073e-02, 9.55368057e-02, 3.04321826e-01,
          0., 4.01233584e-02, 7.80436322e-02, 0., 8.37256983e-02,
          6.74939528e-02, 1.28311649e-01, 5.57202101e-02, 1.26186609e-01,
          2.32889324e-01, 1.68603241e-01, 2.04390474e-02, 0., 0., 0.,
          1.87995329e-01, 1.99856833e-01, 2.02545077e-01, 9.78911296e-02,
          1.08514288e-02, 1.13830782e-01, 1.24357052e-01, 1.71414688e-01,
          1.75192997e-01, 9.95652601e-02, 3.36340554e-02, 0., 0., 0.,
          9.58546847e-02, 3.17546666e-01, 0., 0., 0., 0., 0., 0., 0.,
          8.41805264e-02, 2.24782839e-01, 1.61656067e-01, 1.53983653e-01,
          8.97938684e-02, 8.48457143e-02, 1.18168831e-01, 5.84076606e-02,
          1.87563181e-01, 4.63016555e-02, 5.22640869e-02, 2.03877628e-01,
          1.21325605e-01, 9.20344591e-02, 1.41148925e-01, 7.92430267e-02,
          3.24930072e-01, 0., 0., 1.58430025e-01, 4.84981835e-02, 0. ]
      - [ 1.31984502e-01, 3.35956693e-01, 1.36659756e-01, 0.,
          8.53678286e-02, 0., 9.12452638e-02, 4.20904830e-02,
          1.13246009e-01, 2.62364268e-01, 1.65561691e-01, 0., 0., 0., 0.,
          0., 0., 8.80734697e-02, 2.45809570e-01, 2.21518815e-01,
          1.01387642e-01, 1.04606062e-01, 1.11323848e-01, 1.61106497e-01,
          1.13412058e-02, 1.78400502e-01, 0., 7.85763115e-02,
          7.07357824e-02, 0., 6.64600581e-02, 0., 1.75502986e-01,
          1.52569190e-01, 5.59687763e-02, 1.61834940e-01, 1.07875578e-01,
          5.36627397e-02, 9.04369876e-02, 1.26306504e-01, 1.35075584e-01,
          2.55167410e-02, 0., 1.79119751e-01, 2.02286288e-01,
          1.60530731e-01, 1.50769994e-01, 1.38615236e-01, 0.,
          1.64879605e-01, 7.46296495e-02, 8.61995071e-02, 0., 0.,
          6.74331635e-02, 1.08800575e-01, 0., 1.51759073e-01,
          3.02498698e-01, 2.17804000e-01, 0., 0., 0., 0. ]
      - [ 1.85927391e-01, 1.62584290e-01, 2.65524477e-01, 1.74078912e-01,
          0., 0., 4.80071232e-02, 1.03946976e-01, 0., 1.46678939e-01,
          1.10379741e-01, 1.42114088e-01, 0., 0., 0., 3.79989743e-02,
          1.10311434e-01, 1.51541442e-01, 0., 1.75215736e-01,
          1.90345943e-01, 1.47275761e-01, 1.46295249e-01, 1.17875174e-01,
          2.63534784e-01, 1.28495008e-01, 0., 0., 8.28904957e-02, 0.,
